{"mlp_extractor.policy_net.0.weight": [[-0.008935232646763325, -0.041769299656152725, 0.07357318699359894, -0.011438330635428429, 0.16009396314620972, 0.025156479328870773, 0.14604628086090088, -0.11816012859344482, 0.03555136173963547, 0.0008128835470415652, -0.02228124439716339, 0.12474091351032257, 0.014862217009067535, -0.015739263966679573, -0.13260410726070404, -0.06313084810972214, 0.0032682556193321943, -0.0973951444029808, 0.12606170773506165, -0.03960851579904556, -0.1850244551897049, 0.07082617282867432, -0.011406829580664635, -0.07838153094053268, 0.07107911258935928, -0.14631851017475128, 0.058628711849451065, 0.02463293820619583, 0.0017820688663050532, 0.2767091989517212, -0.06541936099529266, 0.072006955742836, 0.025800295174121857, -0.07566510140895844, 0.05127556622028351, -0.05463169515132904, 0.03900385648012161, -0.04990538954734802, 0.03442621976137161, 0.11733152717351913, 0.0038646229077130556, -0.03272629156708717, 0.01698996312916279, -0.1460130512714386, 0.09434539079666138, -0.04208507761359215, 0.07569612562656403], [0.0016379335429519415, -0.1535177379846573, 0.05720003321766853, -0.019498880952596664, -0.08959438651800156, -0.06416399776935577, -0.005168059840798378, -0.13936923444271088, 0.008463293313980103, -0.07785634696483612, 0.05990218743681908, -0.13253894448280334, 0.07116810977458954, -0.07337237894535065, 0.02876030094921589, -0.07982469350099564, -0.027961155399680138, -0.07634599506855011, 0.0936579704284668, 0.020793959498405457, 0.019299665465950966, -0.21423973143100739, 0.0381583534181118, 0.11769022792577744, 0.10469275712966919, -0.04018128663301468, -0.06265995651483536, 0.02799469418823719, -0.14905229210853577, 0.022346464917063713, -0.0497136227786541, -0.04977632313966751, 0.1617617905139923, -0.21022140979766846, 0.018290795385837555, -0.03296063467860222, -0.0345037579536438, -0.0907839685678482, 0.14566726982593536, 0.02631569281220436, 0.0052779801189899445, -0.04374346882104874, -0.0354214645922184, -0.03311672434210777, -0.049038685858249664, 0.0019449094543233514, 0.01904194988310337], [-0.06365086138248444, 0.05939817801117897, 0.030803153291344643, -0.10143730044364929, 0.007420038338750601, -0.022527791559696198, -0.11396000534296036, -0.06365641951560974, -0.16210833191871643, -0.016023602336645126, -0.030787749215960503, 0.12776629626750946, -0.039173372089862823, -0.016086513176560402, 0.0902155339717865, -0.09666235744953156, -0.050205931067466736, 0.0019219981040805578, 0.09716838598251343, 0.07460630685091019, -0.05197497457265854, -0.06296053528785706, -0.019796697422862053, 0.09058359265327454, 0.060655586421489716, -0.043398723006248474, -0.22033749520778656, 0.0013575188349932432, -0.11205825954675674, -0.04847487434744835, 0.12006139755249023, -0.062455251812934875, 0.004346305970102549, 0.05430084466934204, -0.0017261632019653916, 0.10738922655582428, -0.060532402247190475, 0.07944105565547943, 0.03963783010840416, 0.08427806943655014, 0.09458086639642715, -0.008931947872042656, -0.04719509184360504, -0.018946155905723572, -0.0010436897864565253, 0.04933984577655792, 0.0014834575122222304], [-0.2096555531024933, -0.04586220160126686, -0.09759127348661423, 0.05147489532828331, -0.09417495876550674, 0.04200797528028488, -0.13224928081035614, -0.022317538037896156, 0.021490583196282387, -0.007807213347405195, -0.014058168977499008, -0.02134493552148342, -0.0742843821644783, -0.03429744765162468, 0.06474857032299042, 0.16633601486682892, 0.06695288419723511, -0.11947431415319443, -0.02722545713186264, -0.0971197560429573, -0.0207667276263237, -0.02240479364991188, 0.13488177955150604, 0.11622820794582367, -0.04465135931968689, 0.1075274646282196, -0.07258935272693634, -0.024117309600114822, -0.01699293963611126, 0.017973056063055992, -0.10111398249864578, 0.015661632642149925, 0.030656389892101288, 0.041985344141721725, 0.1617436408996582, 0.0806719958782196, 0.024744579568505287, 0.15402692556381226, 0.0180346816778183, -0.17111897468566895, -0.003894565859809518, 0.0912439301609993, -0.14567184448242188, 0.022136874496936798, -0.03984236717224121, 0.1018361747264862, 0.08471095561981201], [-0.028733432292938232, 0.08232621848583221, -0.01091364212334156, 0.0033324623946100473, 0.05045204982161522, -0.10091529786586761, -0.2213461846113205, 0.18336080014705658, 0.009485558606684208, 0.033303096890449524, 0.0781206414103508, -0.028623949736356735, 0.09038157016038895, -0.048918019980192184, 0.1353389471769333, -0.0021354099735617638, 0.06234198808670044, -0.00663870619609952, -0.030899079516530037, -0.00917824637144804, 0.21293044090270996, 0.08407365530729294, -0.12811508774757385, 0.011162160895764828, -0.13427510857582092, 0.09288850426673889, -0.017211075872182846, 0.0868089348077774, -0.11352010071277618, 0.1353188455104828, -0.09590955078601837, 0.055936697870492935, 0.014124980196356773, -0.01209899503737688, 0.10272152721881866, -0.05887877568602562, 0.06854667514562607, 0.041420746594667435, -0.025964511558413506, 0.04630656540393829, 0.050812236964702606, 0.03146020323038101, 0.003406704170629382, -0.08564832806587219, 0.16841380298137665, -0.17342500388622284, -0.14013007283210754], [0.016408270224928856, -0.06542018800973892, -0.22559469938278198, -0.08401079475879669, -0.08716336637735367, -0.05032284930348396, 0.022105131298303604, -0.10293862968683243, -0.0008593814563937485, -0.010308284312486649, 0.09710700064897537, -0.08095234632492065, 0.06666113436222076, 0.07043620944023132, 0.059486135840415955, -0.08714113384485245, -0.014834281988441944, 0.06409461796283722, 0.16968142986297607, 0.019819945096969604, -0.04228964447975159, 0.03140995278954506, 0.20711968839168549, -0.05350881814956665, 0.03394892439246178, 0.12978467345237732, -0.06284749507904053, 0.04101578891277313, -0.04086467996239662, -0.06152607128024101, -0.08928981423377991, 0.02675468474626541, 0.16608139872550964, 0.0006262440583668649, -0.12481889128684998, 0.01609213463962078, 0.13276471197605133, 0.035147570073604584, 0.008200380951166153, 0.0031790747307240963, 0.0357326865196228, 0.021792035549879074, -0.0924409031867981, -0.10418414324522018, 0.0016694949008524418, -0.19369393587112427, -0.02308633364737034], [-0.3483693599700928, 0.0349896177649498, 0.15672065317630768, -0.01140019204467535, -0.009048952721059322, -0.04638757184147835, 0.10909945517778397, 0.1453026384115219, -0.09856390208005905, -0.18999840319156647, 0.14376603066921234, -0.09441224485635757, 0.024777596816420555, -0.07446105778217316, -0.030296040698885918, -0.05715544521808624, 0.028135856613516808, -0.05138523131608963, 0.05919818952679634, 0.03720131516456604, -0.022144552320241928, -0.007972014136612415, -0.016115624457597733, -0.06766427308320999, -0.0414278469979763, 0.001969339558854699, 0.05409672483801842, -0.04992141202092171, -0.04188262298703194, -0.04895543307065964, -0.09113742411136627, -0.034633953124284744, -0.029916778206825256, -0.005768393166363239, 0.05218244716525078, -0.18009401857852936, -0.02837550640106201, -0.06446762382984161, 0.011266815476119518, 0.006689560599625111, 0.010809305123984814, -0.10881873965263367, -0.13786183297634125, 0.03894433379173279, 0.16471132636070251, 0.06236400827765465, 0.08745653927326202], [0.07061927765607834, -0.1468086689710617, -0.1268448829650879, -0.05877087637782097, 0.05324415862560272, -0.13618850708007812, -0.054586123675107956, 0.08444315940141678, 0.02157033048570156, -0.05263825133442879, 0.11409426480531693, -0.08559631556272507, 0.07169715315103531, 0.06596878916025162, 0.09911104291677475, 0.058209024369716644, -0.11574962735176086, -0.06725438684225082, -0.04043959453701973, 0.14121386408805847, 0.042848922312259674, -0.04838638752698898, -0.05543448403477669, 0.07357581704854965, 0.08426611125469208, -0.10467292368412018, 0.08607155829668045, -0.12172815203666687, -0.0832110345363617, -0.07120604813098907, 0.09188111126422882, 0.0014054040657356381, -0.17740385234355927, 0.053756192326545715, 0.015116726979613304, 0.02140985243022442, 0.10432165861129761, 0.0714133083820343, 0.0361030213534832, -0.01361958310008049, -0.09385227411985397, -0.16191557049751282, -0.0267823226749897, 0.044769927859306335, 0.08857753127813339, -0.06406016647815704, -0.1895454376935959], [0.07860679179430008, -0.0201213750988245, 0.03118032217025757, -0.07375090569257736, -0.0036618662998080254, -0.004741615615785122, 0.06363710016012192, 0.006795360241085291, 0.06531665474176407, 0.0327892005443573, 0.03416242077946663, -0.012377395294606686, 0.11546166986227036, 0.07886632531881332, 0.11281875520944595, 0.12003753334283829, 0.12017491459846497, -0.1466623842716217, 0.09053938835859299, -0.10497484356164932, -0.05726340785622597, -0.073225237429142, -0.00025363682652823627, 0.04234014078974724, 0.11235439032316208, 0.008400002494454384, 0.02831282466650009, 0.1491825133562088, -0.004114218521863222, -0.04038223624229431, 0.10604723542928696, -0.04732418432831764, 0.13355596363544464, 0.01845991425216198, -0.03690360486507416, -0.022230101749300957, 0.015264280140399933, 0.046639397740364075, -0.12779144942760468, 0.02805062010884285, -0.21782152354717255, -0.06368952989578247, -0.0666443333029747, -0.09691733121871948, -0.14040151238441467, 0.07041563838720322, 0.12365571409463882], [-0.07494133710861206, -0.012885456904768944, 0.024449516087770462, 0.033483605831861496, 0.19810672104358673, 0.04127829521894455, 0.08095348626375198, -0.17120122909545898, -0.09103522449731827, -0.1202557161450386, 0.048709750175476074, 0.08071433007717133, -0.11694114655256271, 0.16047979891300201, -0.11803213506937027, 0.02339979074895382, 0.09465000778436661, -0.09822051227092743, 0.0028441164176911116, -0.04715404659509659, 0.13667944073677063, 0.0617017038166523, -0.06413775682449341, -0.10016950964927673, -0.07434472441673279, 0.17133218050003052, 0.029374321922659874, -0.08636379987001419, -0.20432476699352264, -0.07301467657089233, -0.02643856406211853, -0.01525277178734541, -0.052873436361551285, -0.08441910892724991, 0.07585492730140686, 0.1849803477525711, 0.1157049760222435, -0.06979630142450333, 0.0036342863459140062, 0.042605094611644745, -0.003054141765460372, 0.04750046133995056, -0.007630788721144199, 0.02102862112224102, 0.02415773831307888, -0.03673636540770531, 0.14182506501674652], [-0.022866498678922653, -0.15427379310131073, -0.07175775617361069, -0.042896073311567307, 0.03479627147316933, 0.12674954533576965, 0.04998055845499039, -0.06035270914435387, 0.04957692325115204, 0.03331694006919861, -0.02230118401348591, 0.18521805107593536, -0.05138785019516945, 0.22665704786777496, 0.02662634663283825, 0.11918891966342926, -0.05992642417550087, -0.04362809658050537, 0.06368148326873779, 0.03156863525509834, 0.05682264268398285, 0.1430821716785431, -0.050399187952280045, -0.1883171796798706, 0.03855995088815689, -0.07990853488445282, 0.057454321533441544, -0.043835483491420746, 0.041030850261449814, -0.05628408491611481, -0.15577971935272217, 0.07978270947933197, -0.11252373456954956, -0.11231721192598343, 0.047363363206386566, -0.0401720330119133, 0.03381466493010521, -0.0017852456076070666, -0.14065077900886536, -0.06543899327516556, 0.13417550921440125, 0.1456640660762787, -0.012393293902277946, -0.1255197823047638, 0.000331066403305158, 0.21823903918266296, -0.09265502542257309], [-0.09327059984207153, 0.01429674867540598, 0.05203478783369064, -0.12068398296833038, -0.07411160320043564, 0.16926950216293335, 0.10015174001455307, -0.10193168371915817, 0.045704446732997894, 0.03554650396108627, -0.0708833783864975, 0.07708726078271866, 0.14343848824501038, -0.12523537874221802, 0.027128057554364204, 0.01238182745873928, 0.024597013369202614, -0.06564900279045105, -0.007428179960697889, -0.017097147181630135, 0.09998767822980881, 0.09136252105236053, 0.0242342259734869, 0.004224301315844059, -0.12389619648456573, -0.15833014249801636, 0.018485773354768753, 0.032533034682273865, -0.03713837265968323, -0.045424677431583405, 0.11779925227165222, 0.1250123828649521, -0.15057174861431122, -0.11570761352777481, 0.060327187180519104, -0.10219733417034149, -0.07738526165485382, -0.10502676665782928, 0.0997687503695488, 0.13515843451023102, 0.008359615691006184, 0.1452009528875351, -0.01974829100072384, -0.0354788638651371, 0.013630572706460953, 0.10465701669454575, -0.046554699540138245], [-0.0431525744497776, 0.03780312091112137, 0.13361981511116028, 0.13829314708709717, 0.006405551452189684, -0.134878009557724, 0.03957284614443779, 0.0294715017080307, 0.09363997727632523, -0.028000157326459885, -0.08325119316577911, 0.11361183971166611, -0.07995337247848511, -0.047888509929180145, 0.04644006863236427, 0.0323757529258728, 0.1292022466659546, -0.13892196118831635, 0.11905764788389206, 0.19172269105911255, 0.09997173398733139, -0.01892734318971634, -0.06765004247426987, -0.014240732416510582, -0.02946297824382782, 0.035981226712465286, -0.16392166912555695, -0.06367380172014236, 0.048656150698661804, 0.079454205930233, 0.01274997927248478, 0.06781359016895294, 0.10027705878019333, 0.06631410121917725, 0.1168423444032669, 0.04458143189549446, 0.026479283347725868, -0.10402192175388336, -0.024444330483675003, -0.03455948457121849, 0.05173071101307869, 0.04050955921411514, 0.08287128806114197, -0.03244493529200554, 0.008404592052102089, -0.0113688288256526, -0.024821432307362556], [0.06598371267318726, -0.2224881500005722, -0.12262045592069626, -0.14040060341358185, -0.15840350091457367, -0.030156735330820084, -0.1044532060623169, -0.12197235971689224, 0.031179659068584442, 0.05796651542186737, 0.012379979714751244, 0.03733369708061218, -0.09524010866880417, -0.005024430807679892, 0.1584254652261734, 0.002180696465075016, -0.013804608024656773, 0.12446682900190353, -0.038273416459560394, -0.015582016669213772, -0.044948510825634, 0.058942701667547226, -0.0008842553943395615, -0.09966248273849487, 0.13555242121219635, -0.08813401311635971, -0.09224620461463928, -0.13024243712425232, -0.04624425247311592, -0.013119291514158249, -0.03684597462415695, 0.04840119555592537, -0.0023093060590326786, -0.07786188274621964, 0.21225090324878693, -0.006170925218611956, 0.13718172907829285, -0.21443818509578705, 0.06819748878479004, 0.050859805196523666, 0.19770823419094086, -0.10754182934761047, 0.01740846037864685, -0.033834364265203476, 0.013548423536121845, -0.07937192916870117, -0.014644109643995762], [-0.019983623176813126, -0.12553440034389496, -0.026073655113577843, -0.030749976634979248, -0.09166629612445831, -0.04656665772199631, -0.03999599814414978, -0.16051770746707916, 0.01694459468126297, -0.0881359800696373, -0.011066264472901821, 0.06487397104501724, -0.10285814851522446, 0.017167650163173676, 0.03279292955994606, 0.12352395802736282, 0.01019290555268526, 0.012514118105173111, -0.025915613397955894, 0.07669373601675034, 0.08614446222782135, 0.20964092016220093, 0.02582992985844612, 0.06366530060768127, -0.01730520650744438, 0.09128940850496292, 0.03018352948129177, 0.04163424298167229, 0.1504976451396942, 0.05962423235177994, 0.07017683982849121, -0.09411533176898956, -0.05227210372686386, -0.2097482979297638, -0.027901820838451385, 0.0734419971704483, 0.051723744720220566, -0.043796658515930176, 0.09554099291563034, -0.004926133900880814, 0.15261797606945038, -0.022560402750968933, 0.06740865111351013, 0.055858463048934937, -0.035965755581855774, 0.05763797089457512, -0.061660896986722946], [0.008550095371901989, 0.0009263633983209729, 0.10675165802240372, 0.14072196185588837, -0.009382383897900581, -0.09786700457334518, 0.0638187825679779, -0.09566960483789444, 0.08212476968765259, -0.06981107592582703, -0.06116752326488495, 0.10776954889297485, 0.06532541662454605, 0.09260442107915878, 0.04686420038342476, 0.03343312814831734, -0.028476279228925705, 0.018899941816926003, 0.010234336368739605, -0.09016118943691254, 0.033372607082128525, 0.21359923481941223, 0.06633216142654419, -0.11692216992378235, 0.13071845471858978, 0.005622982047498226, -0.0692119374871254, -0.010895518586039543, 0.04738227277994156, 0.103217214345932, 0.00739341601729393, 0.0756257027387619, -0.018139516934752464, -0.061539143323898315, -0.10072669386863708, 0.011360152624547482, -0.06483500450849533, 0.04654013738036156, 0.061941638588905334, -0.010568852536380291, 0.06179361417889595, 0.05818929895758629, -0.16245660185813904, 0.14898265898227692, 0.09502711892127991, -0.0632549300789833, 0.024327917024493217], [0.030042892321944237, 0.05181749537587166, -0.05296483635902405, -0.007680302951484919, -0.0794593095779419, -0.0798940658569336, 0.10384118556976318, 0.11438001692295074, 0.14113692939281464, 0.005178502760827541, 0.05816229432821274, 0.10254240036010742, -0.04913422092795372, 0.040941763669252396, 0.18977035582065582, -0.011618290096521378, -0.0312676839530468, 0.19260618090629578, 0.02842579409480095, 0.004692043177783489, 0.04997400566935539, 0.11722053587436676, -0.014758517034351826, -0.1559600532054901, 0.06127278506755829, 0.08272938430309296, 0.11879657208919525, 0.10824120789766312, 0.08708368241786957, 0.16641037166118622, 0.13466714322566986, -0.11933798342943192, -0.032449785619974136, 0.0866268202662468, -0.2278735190629959, 0.11566108465194702, 0.04706769809126854, 0.015590611845254898, 0.050310224294662476, -0.009789392352104187, -0.052420783787965775, -0.14287890493869781, 0.16770640015602112, -0.08441513031721115, 0.008734801784157753, 0.05128265544772148, -0.07298655062913895], [-0.12855392694473267, 0.11164430528879166, -0.013970046304166317, 0.07064446806907654, -0.10516758263111115, -0.09188219159841537, -0.07967875897884369, 0.04995335638523102, -0.13172203302383423, 0.022192219272255898, -0.163558229804039, 0.14453701674938202, 0.03825903311371803, 0.03519982472062111, 0.10530716925859451, -0.04418604075908661, 0.27918553352355957, 0.10338205099105835, -0.029312696307897568, 0.043393611907958984, 0.09144924581050873, 0.026202043518424034, -0.07782836258411407, 0.10077014565467834, 0.1840691864490509, 0.08631594479084015, -0.12211751192808151, -0.07592824101448059, 0.08449307829141617, -0.04631946608424187, 0.027739515528082848, 0.06386910378932953, 0.006455203518271446, -0.019595421850681305, -0.09802837669849396, 0.12307275086641312, 0.018598593771457672, 0.024648774415254593, 0.03213675692677498, -0.14953100681304932, -0.02677684649825096, 0.033213987946510315, 0.05954746529459953, 0.001004517893306911, 0.12949298322200775, 0.07487742602825165, 0.1101413443684578], [-0.053604453802108765, -0.17414750158786774, 0.050615519285202026, -0.013869432732462883, 0.053390104323625565, -0.05025535076856613, 0.020845061168074608, 0.020386382937431335, -0.05155303701758385, 0.04262081906199455, 0.0018355533247813582, -0.08661394566297531, 0.08357556909322739, -0.00026745902141556144, -0.0018539612647145987, -0.14269302785396576, 0.09854413568973541, 0.03549765795469284, 0.09449979662895203, -0.09874939918518066, -0.04992644861340523, 0.020862188190221786, -0.03710709139704704, 0.0522865392267704, -0.22811032831668854, -0.06263287365436554, -0.16193918883800507, 0.023562585934996605, 0.10777991265058517, 0.04320929944515228, 0.15267221629619598, -0.007186272647231817, 0.07746167480945587, -0.06756322085857391, -0.09549503028392792, 0.005359692499041557, 0.06796318292617798, 0.12828892469406128, -0.0637434795498848, 0.06979545205831528, -0.06701106578111649, 0.17324230074882507, 0.12928706407546997, 0.11820810288190842, -0.05726408585906029, 0.05583677440881729, -0.08702361583709717], [0.09914247691631317, -0.006180840078741312, -0.0496864840388298, 0.04848678782582283, 0.07699131965637207, 0.0078458022326231, 0.0405648909509182, -0.089749276638031, -0.09452731162309647, -0.027281994000077248, -0.133706733584404, -0.0591227225959301, 0.03221844136714935, -0.07718243449926376, 0.05497385188937187, -0.20521047711372375, -0.12297876924276352, 0.20683987438678741, -0.01507695484906435, 0.05040966346859932, 0.028863608837127686, 0.0060791634023189545, -0.08726447075605392, 0.03013918362557888, 0.07744646817445755, -0.10807705670595169, 0.03275810182094574, 0.009504049085080624, 0.042866215109825134, -0.03443564102053642, -0.1364123821258545, -0.042840998619794846, 0.12979593873023987, -0.01624942198395729, -0.02232608012855053, 0.08177763968706131, 0.08135687559843063, -0.010018449276685715, -0.04684794321656227, 0.05443457141518593, 0.03552376106381416, -0.06415920704603195, -0.03487506881356239, 0.020442958921194077, 0.12431018054485321, 0.1276114583015442, 0.15724024176597595], [-0.03616394102573395, 0.023368816822767258, -0.10160829871892929, -0.028776414692401886, -0.013264622539281845, 0.02197893150150776, -0.0045160213485360146, 0.05596570298075676, -0.12387081235647202, -0.03651544451713562, -0.10566539317369461, 0.06061640381813049, 0.0636245459318161, 0.02324618585407734, -0.09275435656309128, -0.11076390743255615, 0.09646650403738022, 0.1769946664571762, 0.1060987338423729, 0.026034321635961533, 0.024872390553355217, -0.07080738246440887, -0.014336868189275265, -0.04060687869787216, 0.06188606470823288, 0.10912995785474777, 0.17861056327819824, -0.1845952719449997, 0.04628104716539383, 0.035746071487665176, 0.1102885976433754, -0.052735671401023865, 0.07472430169582367, 0.06039104238152504, -0.1117715984582901, 0.03815041109919548, -0.008501283824443817, -0.13609279692173004, -0.09503314644098282, -0.03634852170944214, -0.028532426804304123, -0.023460347205400467, 0.042354922741651535, 0.03941747173666954, -0.15103565156459808, -0.058480747044086456, -0.06198424845933914], [0.0868208110332489, -0.10426623374223709, 0.04389787092804909, -0.08476737886667252, -0.054215431213378906, 0.028640583157539368, -0.23309515416622162, 0.047245677560567856, 0.07658608257770538, -0.10703220963478088, -0.05480216443538666, -0.15613918006420135, -0.12246071547269821, -0.06843830645084381, 0.026666296645998955, 0.06858529150485992, 0.10767816752195358, -0.21210816502571106, 0.08240975439548492, 0.0444299690425396, 0.07551003992557526, -0.08109048008918762, 0.07375724613666534, 0.05968813598155975, -0.00046899131848476827, -0.12098710983991623, 0.11351650208234787, -0.18935470283031464, -0.07329127937555313, 0.07282695174217224, -0.013275825418531895, -0.06807857006788254, -0.019366206601262093, 0.03136027604341507, 0.0774216428399086, 0.05006511136889458, -0.20803199708461761, -0.035396210849285126, -0.09922324866056442, -0.11682185530662537, -0.025938965380191803, -0.05090763419866562, 0.09953024238348007, 0.03730157017707825, -0.06453295052051544, -0.0944812148809433, -0.006764264777302742], [0.18561072647571564, 0.06988407671451569, -0.18215236067771912, -0.10055150091648102, 0.15240299701690674, -0.040306948125362396, 0.12881653010845184, 0.12850138545036316, 0.12069595605134964, 0.038131386041641235, 0.100152887403965, 0.09771684557199478, 0.04092968627810478, -0.07241211831569672, 0.0062632192857563496, -0.044075120240449905, -0.07661465555429459, 0.08204786479473114, 0.0007977583445608616, -0.08125051856040955, -0.03166639804840088, 0.11549549549818039, -0.07134988158941269, 0.28244495391845703, -0.10834397375583649, -0.0298610907047987, -0.09552314132452011, 0.07110283523797989, 0.10493576526641846, -0.10466586798429489, 0.01115369237959385, 0.04615592956542969, -0.11106212437152863, -0.051360175013542175, -0.0376196950674057, 0.08762601017951965, -0.056622933596372604, -0.024936506524682045, -0.013650402426719666, -0.09524094313383102, 0.15506647527217865, 0.006809568498283625, -0.05110358074307442, -0.039873190224170685, -0.11129564791917801, 0.0006153339054435492, 0.05183778703212738], [0.024629564955830574, -0.06668965518474579, 0.06104090437293053, 0.07326797395944595, 0.0371403843164444, -0.1312876045703888, -0.09672960638999939, 0.008191157132387161, -0.2430913746356964, -0.1499236822128296, 0.017054317519068718, 0.19077391922473907, 0.07536152005195618, -0.06929657608270645, -0.16888990998268127, 0.1405242532491684, -0.1190129742026329, 0.001597669324837625, -0.07103113830089569, -0.09095953404903412, -0.09119568020105362, 0.07493066787719727, 0.028535446152091026, -0.016895966604351997, -0.04149661958217621, 0.1972939372062683, 0.05363966524600983, 0.10159932076931, 0.049776144325733185, -0.1575862467288971, 0.1485111117362976, -0.048338383436203, 0.031591903418302536, 0.047520577907562256, 0.010855413973331451, -0.10498113930225372, 0.06250328570604324, -0.00326964701525867, 0.06766415387392044, 0.052709419280290604, 0.022104274481534958, 0.05468118190765381, 0.00011661653843475506, 0.06635823100805283, -0.021681513637304306, -0.01721995510160923, -0.07067912071943283], [-0.10335759818553925, -0.05046200007200241, 0.04802962392568588, -0.05555626004934311, -0.0516938678920269, -0.10854055732488632, 0.0987144485116005, 0.09298381954431534, 0.1915942281484604, -0.14648978412151337, 0.0683353990316391, 0.2837509214878082, -0.11051607877016068, 0.041962843388319016, -0.09068775177001953, -0.05795970931649208, 0.08592579513788223, 0.11775027960538864, 0.08256816864013672, -0.05405241250991821, 0.001585040707141161, 0.05717688798904419, -0.04706716164946556, -0.012590160593390465, -0.09593803435564041, -0.05507989972829819, -0.035403408110141754, 0.10764553397893906, -0.19620268046855927, -0.09014420956373215, -0.07311560958623886, -0.011988337151706219, 0.16739948093891144, -0.07771841436624527, -0.037751246243715286, -0.036934904754161835, 0.09303319454193115, -0.06514226645231247, 0.01187814585864544, -0.06525073945522308, -0.11524749547243118, 0.08783282339572906, -0.14807060360908508, -0.09031947702169418, -0.09250184148550034, -0.006933055352419615, -0.08926387131214142], [-0.1636279672384262, 0.08933793753385544, 0.011403074488043785, 0.035679761320352554, -0.07040329277515411, -0.021285604685544968, -0.003688070923089981, -0.09719908237457275, -0.0336759090423584, -0.15839219093322754, 0.07920081168413162, 0.06657301634550095, -0.0962546318769455, 0.014921281486749649, -0.12415054440498352, -0.01962156966328621, 0.016348334029316902, 0.04731922224164009, 0.04221940413117409, 0.1846836358308792, -0.07812239229679108, -0.07091714441776276, 0.05001930519938469, 0.13184581696987152, 0.0037846178747713566, -0.04788392782211304, 0.024749288335442543, -0.04150931164622307, 0.05599577724933624, 0.011630271561443806, 0.02011002041399479, -0.14269420504570007, -0.26417121291160583, -0.0006444309838116169, -0.002831655088812113, 0.056826695799827576, 0.014673877507448196, -0.04881471022963524, 0.17209221422672272, 0.1038430854678154, -0.0683751031756401, 0.1321137696504593, -0.07041068375110626, -0.13980144262313843, 0.07257924228906631, -0.14599661529064178, 0.02677733451128006], [-0.1283182054758072, -0.05266844481229782, -0.14237453043460846, 0.07382511347532272, 0.009573652409017086, 0.0017965511651709676, -0.14518490433692932, 0.13811399042606354, 0.08145951479673386, 0.02057945542037487, -0.021891338750720024, 0.23243393003940582, 0.03484286367893219, -0.02319282665848732, -0.06721130013465881, -0.017314905300736427, 0.08397183567285538, 0.02714504301548004, -0.14658556878566742, 0.03004535473883152, 0.024916913360357285, -0.10363667458295822, -0.2881423532962799, -0.05137572064995766, -0.026311663910746574, -0.12638115882873535, -0.0232305359095335, -0.018795203417539597, 0.04868878424167633, -0.07041499763727188, -0.020876476541161537, -0.09123659878969193, 0.10473668575286865, -0.1786738485097885, 0.09585613012313843, -0.04899972304701805, 0.013353551737964153, -0.06414810568094254, 0.09212716668844223, 0.14772403240203857, -0.05818621814250946, -0.031063975766301155, -0.1558990329504013, -0.05255834013223648, -0.04382161423563957, 0.08465766906738281, 0.023753594607114792], [-0.013997264206409454, -0.16542823612689972, -0.03928981348872185, 0.0936768427491188, 0.14878495037555695, 0.0016613088082522154, 0.001484467415139079, -0.022216763347387314, 0.06617513298988342, -0.10592994838953018, 0.07125172764062881, 0.030629761517047882, 0.1832478791475296, -0.021841440349817276, -0.05233870446681976, 0.07478576898574829, -0.002330961637198925, -0.14646779000759125, 0.11287573724985123, 0.08015149086713791, -0.01090576034039259, -0.04075959324836731, 0.098667673766613, 0.09144046157598495, 0.14933913946151733, -0.06365377455949783, -0.13972695171833038, 0.1237078532576561, 0.03555801138281822, -0.032257080078125, -0.07556258887052536, -0.10315658152103424, 0.08974247425794601, 0.10086912661790848, -0.019668204709887505, -0.05395497754216194, 0.05138939991593361, 0.13454516232013702, 0.08389601856470108, -0.1455100178718567, 0.10776834934949875, 0.09360481798648834, -0.0025923941284418106, 0.10444677621126175, 0.22839410603046417, 0.14483115077018738, -0.039350513368844986], [0.09178971499204636, -0.13743624091148376, -0.04815037548542023, 0.045213256031274796, 0.010929920710623264, 0.20340149104595184, -0.04127213731408119, -0.06843853741884232, -0.05672621726989746, 0.17058338224887848, -0.16891705989837646, 0.14045226573944092, -0.02653653360903263, 0.016550583764910698, -0.01148166786879301, 0.07368055731058121, 0.0357784703373909, -0.0025015519931912422, 0.1372004896402359, -0.07875361293554306, -0.10231594741344452, 0.04413558170199394, 0.004729177802801132, 0.14689898490905762, 0.0033524895552545786, 0.08790788799524307, 0.17100673913955688, 0.0256999172270298, -0.006766278762370348, 0.05358770489692688, -0.02909240685403347, 0.04711902514100075, 0.044914741069078445, -0.005365473683923483, -0.23121948540210724, 0.015754781663417816, 0.03563909977674484, -0.000829127267934382, -0.005556995514780283, 0.014424499124288559, -0.06213774159550667, -0.06261363625526428, 0.07672841846942902, -0.08444157987833023, 0.011385842226445675, 0.008874751627445221, -0.05794166401028633], [-0.12172363698482513, 0.016996288672089577, -0.07088574022054672, -0.00024312942696269602, -0.08060377091169357, 0.07522392272949219, 0.03558199480175972, -0.019585082307457924, -0.016478145495057106, -0.017289096489548683, -0.023794211447238922, 0.05352483689785004, 0.13509643077850342, 0.21654386818408966, -0.018657904118299484, 0.06513868272304535, -0.08281463384628296, -0.11759064346551895, 0.01985195279121399, 0.25410595536231995, -0.00671099778264761, -0.09655863791704178, -0.03117087483406067, 0.08910056203603745, -0.1564020812511444, 0.04094219580292702, -0.042614441365003586, 0.05704149976372719, 0.057058390229940414, 0.16288280487060547, 0.09166943281888962, 0.0131705142557621, -0.03349631652235985, -0.07352393120527267, 0.08051605522632599, 0.11064254492521286, -0.1314748376607895, -0.07051654160022736, -0.12410753220319748, 0.10291214287281036, 0.15183153748512268, -0.12335100769996643, 0.019179828464984894, 0.13466961681842804, 0.018065795302391052, -0.02202712558209896, 0.06290847808122635], [-0.005995613057166338, 0.04404067248106003, -0.050289954990148544, 0.10812642425298691, 0.006085483357310295, -0.1917133778333664, 0.004129387438297272, -0.1782103329896927, -0.11393607407808304, 0.1106383427977562, -0.09434439241886139, -0.04377852380275726, 0.05586585775017738, 0.02189810946583748, -0.013436632230877876, 0.007652619853615761, -0.015219341963529587, 0.013367678970098495, 0.15871872007846832, -0.02476547099649906, -0.029930608347058296, -0.08742739260196686, -0.007266717497259378, -0.1295640915632248, -0.05842382460832596, -0.21037046611309052, 0.05682450532913208, 0.11305031925439835, 0.08450014889240265, 0.04838688299059868, 0.07786854356527328, 0.03180121257901192, 0.19788815081119537, -0.2407095730304718, -0.11162582784891129, -0.05765322223305702, 0.030031783506274223, -0.07525911182165146, -0.03977503255009651, 0.10212341696023941, 0.07863358408212662, 0.04520242288708687, 0.1361837089061737, -0.00048165273619815707, 0.2350589781999588, -0.050582386553287506, 0.031026029959321022], [0.07145414501428604, 0.06711208075284958, 0.04392313212156296, -0.08568233996629715, -0.1274234503507614, -0.015951532870531082, 0.08843138813972473, 0.05889482423663139, -0.09038106352090836, 0.11148488521575928, -0.07561205327510834, -0.026338821277022362, 0.002785442629829049, 0.0408921018242836, 0.009058822877705097, -0.061600495129823685, -0.029468486085534096, 0.09308658540248871, -0.023671254515647888, -0.17867828905582428, 0.11939314007759094, -0.22729797661304474, -0.044544875621795654, 0.06819473952054977, -0.10943999886512756, -0.06920655071735382, 0.12458907812833786, 0.03603551164269447, -0.08194790780544281, 0.09754712134599686, -0.1774430125951767, -0.022188032045960426, -0.07594528794288635, -0.0970461443066597, -0.16104742884635925, 0.08978196978569031, -0.03325970470905304, 0.08447927981615067, -0.020768681541085243, 0.002904725493863225, 0.0035838556941598654, 0.07118203490972519, 0.04589792340993881, -0.12819083034992218, 0.17683707177639008, 0.1943456381559372, -0.1461091935634613], [0.05869629606604576, 0.07202626764774323, -0.09047495573759079, 0.07591981440782547, 0.04582086205482483, -0.02594916522502899, -0.026394706219434738, 0.01905391737818718, 0.00992127787321806, 0.041713353246450424, 0.08582215011119843, -0.08883024752140045, -0.019030943512916565, 0.021998906508088112, 0.036686792969703674, 0.01848088763654232, 0.06299863010644913, -0.008610292337834835, -0.03408968448638916, 0.05978817865252495, 0.05957726389169693, 0.06863116472959518, -0.2468104362487793, -0.010957177728414536, -0.04756355658173561, -0.08967038989067078, -0.03161787614226341, 0.07301931083202362, -0.07177002727985382, 0.014551866799592972, 0.020136738196015358, 0.0998639464378357, 0.1292874813079834, 0.09158263355493546, 0.06931357085704803, 0.03623250871896744, 0.10622064024209976, -0.07631183415651321, 0.002954034600406885, 0.012967352755367756, -0.11508667469024658, -0.05297854170203209, 0.19187958538532257, -0.04729317128658295, -0.0651712417602539, -0.08848509937524796, -0.13828657567501068], [-0.20190498232841492, -0.0708673819899559, 0.10360318422317505, -0.11407865583896637, -0.11869857460260391, 0.060780975967645645, 0.12019001692533493, -0.11817976087331772, -0.07514240592718124, -0.18976733088493347, 0.04635274037718773, 0.05413638800382614, -0.04143519327044487, 0.0008248371887020767, -0.0724773034453392, -0.06664036959409714, -0.017387300729751587, -0.08186285942792892, -0.10992992669343948, 0.018086561933159828, 0.10314100235700607, -0.07816504687070847, 0.011895227245986462, -0.04336174204945564, -0.06115441024303436, 0.047332294285297394, 0.08323299884796143, 0.0994081199169159, 0.022259481251239777, 0.13423492014408112, -0.02160029113292694, -0.06485579907894135, 0.016767805442214012, 0.10819804668426514, -0.03409792482852936, 0.10297991335391998, 0.13354013860225677, 0.018725069239735603, 0.0037358985282480717, 0.08232011646032333, -0.08133109658956528, 0.01833963580429554, -0.03440333157777786, -0.11368165165185928, 0.012736832723021507, 0.13791513442993164, 0.0040621161460876465], [0.10491935163736343, -0.0020376804750412703, 0.06011063978075981, -0.15408405661582947, -0.1704254299402237, -0.05550851300358772, -0.09486468881368637, 0.004877612926065922, 0.03290816396474838, -0.04517016187310219, -0.12043335288763046, 0.09336825460195541, 0.07349816709756851, 0.029987460002303123, -0.04036546126008034, 0.10145589709281921, -0.08555193245410919, -0.004468425177037716, 0.054100342094898224, 0.25040051341056824, -0.023620644584298134, -0.03611936420202255, -0.09234029054641724, 0.04073546826839447, -0.003540084697306156, 0.0920817106962204, -0.035396508872509, 0.0552254393696785, -0.12093460559844971, 0.02122066356241703, 0.12409672886133194, 0.11290525645017624, -0.058245085179805756, -0.09673778712749481, 0.03271651268005371, 0.1140715479850769, -0.04628909379243851, -0.08488938212394714, 0.03631306812167168, -0.05272940918803215, 0.004419185221195221, -0.022141821682453156, -0.10480800271034241, 0.10542239993810654, -0.07938919961452484, 0.04012572020292282, -0.09840945154428482], [-0.04314865171909332, 0.02938220463693142, 0.10600034892559052, -0.0038400115445256233, 0.10914106667041779, -0.04413687065243721, -0.06824181973934174, 0.013462667353451252, -0.014071914367377758, 0.17078663408756256, -0.01408244576305151, -0.048048235476017, -0.11474672704935074, -0.19263328611850739, -0.005605099257081747, 0.06133820861577988, 0.04612934961915016, 0.036939144134521484, 0.14228317141532898, 0.09674730151891708, -0.052376508712768555, -0.05142543464899063, -0.11793157458305359, 0.009633130393922329, -0.07814891636371613, 0.031325601041316986, -0.031584233045578, -0.04199805483222008, 0.08387596160173416, -0.010668611153960228, -0.03951055929064751, 0.21734677255153656, -0.006601125001907349, 0.16713741421699524, -0.14104291796684265, 0.026967015117406845, -0.05344179645180702, -0.07690749317407608, -0.02157684974372387, 0.09792082011699677, 0.020088503137230873, 0.0653877854347229, 0.06749031692743301, 0.07461920380592346, 0.06958310306072235, -0.015851156786084175, -0.07777854055166245], [-0.09359373152256012, 0.008900371380150318, 0.039373233914375305, -0.09811234474182129, -0.03364827483892441, 0.10186655819416046, 0.05230550095438957, 0.12619516253471375, 0.0285225547850132, -0.042216524481773376, 0.018527926877141, -0.06081188842654228, -0.03407886251807213, -0.12002526223659515, 0.017664143815636635, 0.1183396726846695, 0.12926562130451202, -0.02283392660319805, -0.07718880474567413, 0.05837037041783333, 0.06111442670226097, 0.020678361877799034, -0.010565364733338356, -0.13428328931331635, 0.07402237504720688, 0.018070248886942863, 0.06736627966165543, 0.03693974390625954, 0.11270854622125626, 0.0062955631874501705, 0.027880677953362465, 0.08538459241390228, 0.10747774690389633, -0.01383279636502266, -0.008109339512884617, 0.05716601014137268, -0.062295254319906235, -0.04770433157682419, 0.06242305412888527, -0.011756430380046368, -0.12196902185678482, 0.03055204451084137, -0.055716078728437424, -0.15353907644748688, 0.20632892847061157, 0.15681830048561096, -0.00930493138730526], [-0.1017964631319046, 0.0039169685915112495, -0.019258838146924973, 0.028543571010231972, -0.0554729700088501, -0.012848413549363613, 0.020078865811228752, -0.05933520942926407, 0.14605891704559326, 0.03792398050427437, -0.0667518600821495, -0.029992258176207542, 0.010884891264140606, -0.02836313284933567, -0.019153552129864693, 0.031926728785037994, 0.03578917309641838, -0.049601245671510696, 0.10657685250043869, -0.07452153414487839, -0.17921122908592224, 0.1695115715265274, 0.14495569467544556, -0.015397978015244007, -0.13030031323432922, -0.0005707891541533172, 0.10605692118406296, -0.11957713961601257, -0.06866224855184555, -0.08057624846696854, 0.1288376897573471, 0.0502205565571785, 0.028876187279820442, -0.14309555292129517, 0.04420262947678566, -0.1614745855331421, 0.15556393563747406, -0.016200227662920952, -0.01859811320900917, -0.007847233675420284, -0.12899702787399292, -0.08859308809041977, 0.08038315922021866, 0.011451555415987968, 0.02082710713148117, 0.08067325502634048, -0.17007885873317719], [-0.01583731174468994, -0.011714348569512367, -0.05166013538837433, 0.07253754884004593, -0.08304992318153381, -0.0856349915266037, -0.09695257246494293, 0.07093479484319687, -0.029239928349852562, -0.05631178617477417, 0.04800767824053764, 0.1085914671421051, -0.028785718604922295, 0.10437022894620895, 0.047706425189971924, 0.1223127692937851, 0.0006258235080167651, -0.09686250984668732, 0.025019919499754906, 0.02491169609129429, -0.3013771176338196, 0.011861746199429035, -0.08449631929397583, 0.05064050853252411, -0.16437944769859314, 0.08287656307220459, -0.02936205081641674, -0.21353867650032043, -0.06349264830350876, -0.0529467910528183, -0.10184190422296524, 0.1569284200668335, -0.08799342066049576, 0.044499482959508896, -0.022680986672639847, -0.014977753162384033, -0.13181504607200623, 0.10230015218257904, -0.04091949388384819, -0.02803436852991581, 0.13775235414505005, -0.008249006234109402, 0.057309482246637344, 0.05782177299261093, 0.0910593718290329, -0.014122961089015007, 0.011196105740964413], [-0.022965222597122192, -0.08418667316436768, -0.06365690380334854, 0.05404011905193329, 0.13557766377925873, 0.020329397171735764, -0.02138512022793293, -0.026918746531009674, -0.06587737798690796, -0.0726473405957222, -0.018638867884874344, -0.0833086147904396, -0.011224432848393917, -0.022570645436644554, -0.12100031971931458, -0.026207543909549713, -0.015066714026033878, 0.07683459669351578, -0.018023906275629997, 0.040427304804325104, 0.07778660953044891, -0.017690384760499, -0.1372644454240799, 0.1510714292526245, -0.030343756079673767, -0.14802879095077515, 0.09635244309902191, -0.15053793787956238, -0.011911154724657536, -0.08712779730558395, 0.03997752070426941, -0.05871014669537544, -0.0023965928703546524, -0.11273029446601868, 0.034948818385601044, 0.042300350964069366, 0.022710738703608513, 0.08781492710113525, -0.055000681430101395, 0.009729930199682713, -0.10524539649486542, 0.12984099984169006, -0.04231616482138634, 0.021940460428595543, 0.0666692778468132, 0.03138614445924759, -0.08034870773553848], [-0.05967678502202034, 0.07681509107351303, 0.16192634403705597, -0.0037125542294234037, -0.11443821340799332, 0.12315088510513306, 0.013794850558042526, 0.07130979746580124, -0.007125222589820623, -0.17111647129058838, 0.09194248169660568, -0.07571747899055481, 0.023036852478981018, 0.02219778671860695, -0.0886116772890091, 0.00433327304199338, -0.05695150047540665, 0.017528586089611053, -0.07639118283987045, 0.07695674151182175, -0.1334168165922165, 0.11270731687545776, 0.08421939611434937, 0.17147724330425262, 0.044472016394138336, 0.11315706372261047, -0.002743567107245326, -0.15712253749370575, -0.09383095055818558, 0.07047346979379654, -0.00563800660893321, -0.12811784446239471, -0.03435763716697693, 0.08145436644554138, -0.18644043803215027, -0.07300910353660583, 0.02925862744450569, -0.08352035284042358, -0.13198192417621613, 0.1429125815629959, -0.11308328062295914, 0.08596861362457275, 0.06475774198770523, 0.018030626699328423, 0.12486618757247925, 0.1434437334537506, -0.02372969500720501], [0.042466431856155396, -0.008453995920717716, -0.013474373146891594, -0.11719702929258347, -0.12283524870872498, 0.09438839554786682, 0.14583809673786163, 0.05409873276948929, -0.012388023547828197, -0.04168826714158058, -0.024972574785351753, 0.01218667533248663, -0.053089696913957596, 0.054637931287288666, -0.15856945514678955, 0.03744081035256386, 0.057349927723407745, -0.021299676969647408, -0.12841056287288666, -0.1508614718914032, 0.027722584083676338, -0.06434262543916702, -0.07499459385871887, -0.10241903364658356, -0.04513397067785263, -0.15957871079444885, 0.15819081664085388, 0.06658589839935303, -0.06671904772520065, 0.0337686724960804, -0.0510813444852829, 0.0380399152636528, 0.0846424400806427, 0.018278785049915314, -0.11500333249568939, -0.14119364321231842, -0.10386352241039276, 0.10703013837337494, -0.01275496557354927, -0.002714207163080573, 0.08115370571613312, 0.04027796909213066, -0.06157052516937256, 0.008651388809084892, -0.03297010436654091, -0.1126977801322937, 0.02640998177230358], [0.13223567605018616, 0.15629027783870697, 0.10067219287157059, -0.15646961331367493, 0.021199677139520645, 0.048876065760850906, -0.07212674617767334, 0.004711705259978771, -0.028379155322909355, 0.014386664144694805, -0.07699230313301086, 0.019935306161642075, -0.010138520039618015, -0.025572724640369415, 0.035096894949674606, 0.09796752035617828, 0.0013813306577503681, 0.05268573388457298, 0.020465532317757607, -0.05291970074176788, -0.016812283545732498, -0.07159972935914993, -0.08340297639369965, -0.10790231078863144, 0.14236296713352203, -0.12348169088363647, 0.03714071214199066, 0.0730365440249443, 0.033608078956604004, 0.04394609481096268, -0.06563401222229004, -0.05797988921403885, -0.044116824865341187, 0.029638731852173805, 0.057030871510505676, -0.11713773757219315, -0.09256914258003235, -0.09188742935657501, -0.07445662468671799, -0.06456707417964935, 0.08941864967346191, 0.19964948296546936, 0.10743458569049835, -0.04823639243841171, 0.017408153042197227, -0.07179097831249237, 0.00584503635764122], [-0.048811186105012894, -0.10287566483020782, -0.04008316993713379, 0.06716908514499664, -0.06021071597933769, -0.07679114490747452, -0.04479378089308739, 0.11006191372871399, -0.07754150032997131, -0.02419145405292511, -0.04417648911476135, 0.0740029364824295, -0.004511327017098665, 0.05622586980462074, -0.08060099929571152, 0.06397190690040588, 0.04790567606687546, -0.019627410918474197, -0.014104188419878483, -0.0004385459760669619, -0.08565113693475723, 0.10688735544681549, 0.017997048795223236, -0.08449540287256241, 0.00920445378869772, -0.09773552417755127, 0.020773204043507576, -0.22826620936393738, 0.11663510650396347, -0.002905248897150159, -0.08695892244577408, -0.0223025381565094, -0.09772966057062149, 0.016840258613228798, 0.13007752597332, -0.07670468091964722, 0.05925336480140686, 0.0354200042784214, -0.07851212471723557, 0.13000325858592987, -0.051377199590206146, -0.11820603162050247, 0.07354342192411423, 0.042372364550828934, 0.04400062561035156, 0.03663758933544159, -0.03677723556756973], [-0.024357397109270096, -0.058948080986738205, -0.13838505744934082, 0.006936727557331324, -0.13150805234909058, -0.02760508842766285, -0.08005063980817795, -0.10167627781629562, -0.025888022035360336, 0.021091187372803688, 0.03734442964196205, 0.022568853572010994, 0.000743476499337703, -0.052632562816143036, 0.061909306794404984, -0.18939493596553802, 0.11715833097696304, -0.046969037503004074, 0.04748498275876045, 0.07420723140239716, -0.13612931966781616, 0.15461938083171844, -0.03835367038846016, -0.07460232824087143, 0.03634526580572128, -0.02504792995750904, 0.06059720367193222, 0.0341375395655632, 0.0059883142821490765, 0.08543097227811813, -0.10999681055545807, -0.07724417746067047, -0.1782103031873703, 0.06710343807935715, -0.12657111883163452, 0.07323934137821198, -0.08565111458301544, 0.07093434780836105, -0.026128988713026047, 0.0036500785499811172, -0.10051912069320679, 0.06952410936355591, -0.03382444754242897, 0.22873903810977936, 0.031797636300325394, -0.04187839478254318, 0.031231973320245743], [-0.05963508039712906, 0.1097269058227539, 0.17448554933071136, -0.08810550719499588, -0.09100807458162308, -0.07895772904157639, 0.0043333228677511215, 0.026921667158603668, 0.12056014686822891, 0.14957310259342194, -0.11963916569948196, 0.06127025559544563, -0.0516970157623291, -0.11688115447759628, -0.058470770716667175, -0.03618942201137543, -0.15463124215602875, -0.11337079107761383, -0.0953989326953888, 0.006369275506585836, 0.06118697673082352, -0.0617523118853569, -0.035243529826402664, -0.04227709025144577, 0.18752458691596985, 0.02414132095873356, -0.0632689893245697, -0.0913783386349678, 0.05225121229887009, -0.006893400102853775, -0.04628590866923332, -0.04790647700428963, 0.029852034524083138, -0.030664321035146713, 0.15094983577728271, -0.012628478929400444, 0.15053069591522217, 0.02667914517223835, -0.06998442858457565, -0.08986431360244751, -0.008447310887277126, -0.021096600219607353, 0.0778786838054657, -0.11464598029851913, -0.08337336033582687, -0.09761836379766464, -0.02761618234217167], [-0.07155510038137436, -0.13113537430763245, 0.017845163121819496, 0.019167525693774223, 0.09953746944665909, 0.08474505692720413, 0.006853180471807718, 0.025383446365594864, -0.008360564708709717, 0.11267531663179398, 0.10581076145172119, -0.06878061592578888, -0.04241083934903145, 0.08260113000869751, -0.04640126973390579, -0.03304378315806389, 0.10789588838815689, 0.1377667337656021, -0.008234492503106594, 0.09825880825519562, 0.034490495920181274, -0.07091634720563889, 0.17316193878650665, 0.00145352550316602, -0.13696694374084473, -0.07772615551948547, -0.0101461848244071, -0.015802813693881035, 0.11834663152694702, -0.07319341599941254, 0.008431516587734222, 0.0006957849254831672, -0.034080538898706436, -0.07047007977962494, 0.007241041399538517, -0.08180933445692062, 0.03188854083418846, -0.01574156992137432, -0.05044654756784439, 0.1016828864812851, -0.11921907961368561, -0.006029021926224232, 0.009577635675668716, 0.12595689296722412, 0.006167388986796141, -0.06231655180454254, 0.04747762531042099], [0.15466982126235962, 0.06793209165334702, -0.0629294365644455, -0.010577877052128315, 0.13942232728004456, -0.015193253755569458, -0.12023837864398956, 0.19601553678512573, 0.059310946613550186, 0.03843607008457184, 0.1155306026339531, 0.04603732004761696, 0.1320379078388214, -0.054577670991420746, -0.11815270036458969, -0.08519111573696136, -0.002835117280483246, 0.10069270431995392, -0.08825606852769852, 0.00117560476064682, 0.002358333207666874, -0.1193104162812233, 0.07749521732330322, -0.13583797216415405, -0.09340046346187592, 0.12613631784915924, 0.03231915459036827, -0.10143210738897324, -0.056801263242959976, -0.13730517029762268, 0.04562205821275711, 0.06306374073028564, 0.023061737418174744, -0.038021232932806015, -0.11746755987405777, 0.003071632469072938, 0.10584001988172531, -0.0841311439871788, -0.010281780734658241, -0.07384774833917618, -0.06678878515958786, -0.02592235803604126, 0.13765880465507507, 0.1374138742685318, 0.020369354635477066, 0.09786063432693481, 0.09186115860939026], [-0.016623998060822487, 0.06227961182594299, 0.03635300695896149, 0.0027733889874070883, -0.17029350996017456, 0.01383916288614273, 0.06920834630727768, 0.039696481078863144, -0.19762811064720154, -0.06000297889113426, 0.038040660321712494, -0.044587280601263046, 0.0459555983543396, -0.17942534387111664, 0.0003405427560210228, -0.15518568456172943, -0.17546625435352325, -0.06486038863658905, -0.13705892860889435, -0.07861009985208511, -0.06537539511919022, -0.009662977419793606, 0.021162299439311028, -0.06534527242183685, 0.022763755172491074, 0.16372117400169373, 0.10334031283855438, -0.03290051594376564, -0.015519369393587112, 0.11940910667181015, 0.018351230770349503, 0.10848230123519897, 0.24597834050655365, 0.016246270388364792, 0.10501790046691895, -0.015729252249002457, 0.017105894163250923, 0.012399272061884403, -0.2045884132385254, 0.08752769976854324, 0.025869421660900116, 0.12687209248542786, -0.043356236070394516, 0.12242913991212845, -0.15258295834064484, -0.04016735777258873, 0.04307475686073303], [0.11623722314834595, -0.03853568807244301, -0.13851121068000793, -0.029776593670248985, -0.006238146219402552, 0.2033926397562027, 0.05287505313754082, -0.14737571775913239, 0.06373324245214462, -0.06790236383676529, -0.11552843451499939, -0.0995064303278923, 0.008206161670386791, -0.17436781525611877, 0.03956723213195801, -0.0515291765332222, 0.14666683971881866, -0.12800084054470062, -0.04372970759868622, 0.11675989627838135, -0.09106907993555069, -0.018884090706706047, -0.029987158253788948, -0.04117846488952637, -0.035982172936201096, -0.01281729806214571, -0.0191134475171566, 0.08432092517614365, 0.059754274785518646, 0.052167922258377075, -0.06390506029129028, 0.0651056170463562, -0.06882261484861374, 0.007951933890581131, -0.07120565325021744, -0.2084919512271881, 0.023280257359147072, 0.051934435963630676, 0.06896514445543289, -0.05384264513850212, 0.09368810802698135, -0.004144290462136269, -0.008518354035913944, -0.12178472429513931, -0.11945046484470367, -0.04505998268723488, 0.0736171305179596], [-0.16786372661590576, -0.09995350986719131, -0.01354152336716652, -0.0020651519298553467, 0.022772490978240967, 0.01110470574349165, -0.13755536079406738, 0.017556598410010338, -0.026682646945118904, -0.0414118655025959, -0.12060883641242981, 0.09808794409036636, 0.007462693378329277, -0.1909099817276001, 0.03695891797542572, -0.08052176982164383, -0.05166012793779373, 0.043785400688648224, -0.10296741873025894, 0.04283726587891579, -0.054540932178497314, 0.08600767701864243, -0.034627046436071396, -0.12117359787225723, -0.022418027743697166, -0.08561873435974121, 0.010615458711981773, -0.030652513727545738, 0.016833871603012085, 0.09545746445655823, 0.1877449005842209, 0.017369691282510757, 0.01862533576786518, 0.021481279283761978, -0.21665164828300476, 0.0978245735168457, -0.07908778637647629, -0.03363262489438057, 0.08378132432699203, 0.019037393853068352, -0.02856282889842987, 0.07509709149599075, 0.14647604525089264, 0.036972369998693466, 0.024276264011859894, 0.061225682497024536, 0.019930217415094376], [-0.0538184680044651, 0.014858022332191467, -0.03731554374098778, 0.06253569573163986, 0.07604938745498657, 0.11831088364124298, -0.03550832346081734, -0.008838560432195663, -0.0020437221974134445, 0.030329590663313866, 0.051736168563365936, 0.10085532814264297, -0.014656159095466137, 0.06172219291329384, 0.07393591105937958, -0.04752965644001961, -0.025274131447076797, 0.1022183746099472, 0.03185141831636429, -0.07456474751234055, 0.1142936497926712, -0.15819182991981506, 0.019473599269986153, -0.00948385614901781, -0.05893756449222565, 0.12003111839294434, -0.04420017451047897, -0.06379370391368866, 0.046926893293857574, -0.01420734915882349, -0.0944344624876976, -0.08417928963899612, 0.05997611954808235, -0.03427349030971527, -0.014629430137574673, -0.024103444069623947, 0.11142954230308533, 0.015512730926275253, -0.024748973548412323, -0.02763775922358036, 0.020829681307077408, -0.17013800144195557, -0.11962787806987762, 0.12329181283712387, 0.028195926919579506, -0.06694876402616501, -6.869904609629884e-05], [0.13776545226573944, 0.1457783281803131, -0.03404959663748741, -0.03044016845524311, -0.006781016942113638, 0.049334052950143814, 0.037872761487960815, 0.03232879191637039, 0.06798186898231506, 0.12851905822753906, 0.10334333777427673, 0.030303768813610077, 0.07353086769580841, -0.1367148756980896, 0.19185508787631989, -0.0038918661884963512, -0.06150175258517265, -0.019792143255472183, 0.16564089059829712, 0.06668296456336975, 0.07893551886081696, 0.1058582291007042, 0.0028104467783123255, -0.07939039915800095, 0.046194639056921005, 0.21572040021419525, 0.04010492563247681, 0.22823691368103027, -0.0885528102517128, -0.02881062962114811, 0.02441936917603016, -0.015180912800133228, 0.008067870512604713, -0.04340004175901413, -0.01677546463906765, -0.2272937148809433, -0.15946654975414276, -0.06089002639055252, -0.018346719443798065, 0.022042930126190186, -0.016270117834210396, -0.018929805606603622, 0.06404484808444977, 0.058741260319948196, 0.03585432842373848, -0.0034366995096206665, 0.07799623161554337], [0.10230966657400131, -0.06460116058588028, -0.05969158560037613, 0.055481910705566406, -0.0019844856578856707, -0.14099512994289398, 0.09106775373220444, 0.08887917548418045, -0.001334426342509687, -0.04155493900179863, -0.07094044238328934, -0.041925475001335144, 0.0029711630195379257, 0.06074931472539902, -0.07867404818534851, 0.058545805513858795, -0.015181278809905052, -0.09090238809585571, -0.03967933729290962, -0.0331156849861145, -0.015662647783756256, 0.07883617281913757, -0.16279463469982147, -0.07723598927259445, -0.034354738891124725, 0.01399785466492176, -0.1384904980659485, -0.06816883385181427, -0.01817667856812477, 0.06318280100822449, -0.09158792346715927, -0.028597364202141762, -0.01404107641428709, 0.14652657508850098, -0.02036004140973091, -0.03327205404639244, 0.06275013834238052, -0.21071748435497284, 0.07965471595525742, 0.08449848741292953, -0.003953000530600548, 0.11973875761032104, 0.23260065913200378, 0.020884614437818527, -0.16724343597888947, 0.23328198492527008, 0.023248283192515373], [0.05939865857362747, -0.037583112716674805, 0.08204607665538788, -0.12347143888473511, -0.0541289858520031, -0.11239805072546005, 0.03504946455359459, 0.01799403689801693, 0.04202180728316307, -0.05133448913693428, -0.0027509110514074564, 0.008717456832528114, 0.06260019540786743, 0.11577776819467545, 0.05471315234899521, 0.14999541640281677, 0.05592655390501022, 0.03317992761731148, -0.09512214362621307, -0.03873559087514877, 0.00687454966828227, -0.09673819690942764, 0.008620698004961014, 0.06692222505807877, 0.0406038872897625, 0.16794463992118835, 0.03233606740832329, -0.026982860639691353, -0.010851548053324223, 0.09212387353181839, 0.08437468111515045, 0.07490294426679611, -0.07038851082324982, -0.04868200793862343, 0.06739404052495956, -0.04245493933558464, -0.006483329460024834, -0.03077506273984909, -0.10104983299970627, -0.03531699627637863, -0.05521661788225174, 0.10468119382858276, 0.12838183343410492, 0.05148807540535927, -0.01565450429916382, -0.008274327032268047, 0.10695351660251617], [-0.11023072898387909, -0.09221338480710983, -0.008476026356220245, 0.0313454195857048, 0.03459389880299568, 0.03968479111790657, -0.03602772578597069, 0.02057320438325405, -0.08196631819009781, 0.010129716247320175, 0.03717157989740372, 0.10281036049127579, 0.1134921982884407, -0.04551297426223755, 0.012675360776484013, 0.11469734460115433, 0.0190122053027153, 0.13828113675117493, -0.003110766177996993, 0.054334137588739395, 0.0974360927939415, -0.0094801876693964, -0.1252189576625824, -0.05200083926320076, -0.17188937962055206, 0.060445304960012436, 0.15099658071994781, 0.01486068032681942, -0.10881377756595612, 0.05322406440973282, -0.19860562682151794, -0.14979217946529388, 0.036463662981987, 0.006196738686412573, 0.063222236931324, -0.06261254101991653, -0.12913981080055237, -0.006270224694162607, 0.12539951503276825, -0.06940224766731262, -0.012036345899105072, -0.004185891710221767, -0.15152940154075623, 0.228739395737648, -0.0579972118139267, -0.11150548607110977, -0.05349023640155792], [-0.006382516585290432, 0.045547958463430405, -0.04268036037683487, 0.0006575437728315592, 0.07573142647743225, 0.0425163172185421, -0.13358452916145325, 0.011721604503691196, -0.11070116609334946, -0.008424557745456696, 0.023128386586904526, -0.036657221615314484, -0.2341548353433609, -0.11162444949150085, -0.08932237327098846, 0.2571371793746948, 0.049097850918769836, -0.07520345598459244, -0.0703231617808342, 0.10103562474250793, 0.022400127723813057, 0.0529816560447216, 0.0536753311753273, 0.08831359446048737, 0.002982800593599677, 0.1217196062207222, 0.12892866134643555, 0.09561914205551147, 0.15710866451263428, 0.010303008370101452, 0.019211750477552414, 0.1438426375389099, 0.09068826586008072, -0.07236722111701965, 0.12209948152303696, 0.04393758624792099, 0.05077525973320007, -0.06679387390613556, -0.007209263276308775, 0.0572374165058136, -0.05893852189183235, -0.028134535998106003, -0.03581564500927925, -0.029737921431660652, -0.08499960601329803, 0.07512244582176208, -0.2144957035779953], [0.1188524141907692, -0.17335456609725952, 0.06743476539850235, -0.052778441458940506, 0.03508063778281212, 0.0930640920996666, 0.023214979097247124, 0.11063023656606674, 0.015921520069241524, -0.09947200864553452, -0.0022463523782789707, -0.06945354491472244, 0.1362731158733368, 0.0213790126144886, 0.11907684803009033, 0.2118505984544754, -0.1474178433418274, 0.05336228013038635, 0.20871774852275848, 0.0966273620724678, 0.02465697005391121, -0.029054027050733566, -0.2672485411167145, 0.06673185527324677, -0.003817687276750803, -0.20505084097385406, -0.022039828822016716, 0.04833105951547623, -0.05207086727023125, -0.00578721659258008, 0.05865839496254921, -0.0250987708568573, -0.008440465666353703, -0.16090801358222961, 0.09443285316228867, -0.06489761918783188, 0.019120706245303154, 0.1247284933924675, 0.03389482945203781, -0.16079357266426086, -0.05357477441430092, -0.01379892323166132, 0.06522911041975021, 0.04135369509458542, -0.07356134802103043, 0.14357462525367737, 0.012890256009995937], [0.052625756710767746, 0.060745369642972946, 0.041112374514341354, 0.22030669450759888, 0.04443241283297539, 0.07527144998311996, -0.02296821027994156, -0.1097068339586258, 0.03815459460020065, 0.18276426196098328, -0.01676986739039421, 0.0037511077243834734, -0.0038144574500620365, -0.021205157041549683, 0.10571077466011047, 0.07758864015340805, -0.08609849214553833, -0.08422766625881195, -0.1510075479745865, 0.10400739312171936, -0.03902526944875717, 2.317994221812114e-05, -0.10454820096492767, -0.07690096646547318, 0.03651230409741402, 0.05267166346311569, -0.05184914916753769, 0.11970295011997223, -0.048272524029016495, 0.038874462246894836, 0.12578919529914856, -0.1302431970834732, 0.05467294529080391, 0.033378131687641144, 0.07104486227035522, 0.0044367555528879166, -0.02990899048745632, 0.07295769453048706, -0.012599190697073936, -0.07010507583618164, 0.08702491968870163, -0.141462504863739, -0.02550610527396202, -0.13574619591236115, -0.030783092603087425, -0.1706332117319107, -0.04011494666337967], [0.021970907226204872, 0.14748406410217285, 0.009795337915420532, -0.15754647552967072, 0.13792507350444794, -0.12161342799663544, 0.07428363710641861, 0.022901831194758415, 0.07849309593439102, -0.07546710968017578, -0.11015116423368454, 0.04469074681401253, -0.16198167204856873, 0.006869798060506582, 0.09170033037662506, -0.12198029458522797, -0.022345952689647675, 0.1532720923423767, 0.02293964847922325, -0.03178200498223305, -0.010086706839501858, -0.037937190383672714, -0.03971375524997711, 0.06606199592351913, -0.1450173556804657, 0.1642298698425293, 0.09854843467473984, -0.04959052801132202, 0.06388446688652039, 0.038322802633047104, 0.03395579755306244, 0.06343931704759598, -0.08051058650016785, 0.05144320800900459, 0.045496776700019836, 0.015003944747149944, 0.02908427268266678, -0.051471561193466187, 0.10062622278928757, 0.11102479696273804, 0.04354740306735039, 0.00014908224693499506, -0.05203219875693321, -0.043668340891599655, 0.032839056104421616, -0.11376773566007614, -0.08481733500957489], [0.040112096816301346, -0.08030327409505844, 0.08643748611211777, -0.020837463438510895, -0.04035216197371483, 0.0974305272102356, 0.042232006788253784, -0.006450471002608538, -0.09563574194908142, -0.024795856326818466, -0.0014362388756126165, -0.024194516241550446, 0.20958800613880157, 0.0490029938519001, 0.0405644029378891, -0.0513753704726696, 0.12944021821022034, -0.11857054382562637, -0.1622314602136612, -0.027994723990559578, -0.0005503407446667552, -0.037446536123752594, -0.12729047238826752, 0.12950043380260468, 0.021160369738936424, -0.09551047533750534, 0.09695924818515778, -0.21306024491786957, 0.014407457783818245, 0.08030657470226288, 0.08609923720359802, -0.1723349392414093, -0.012972601689398289, 0.0275811105966568, -0.06143645569682121, 0.028945814818143845, 0.0492754802107811, -0.02018803358078003, -0.030854638665914536, -0.027492506429553032, -0.015135143883526325, -0.02957003563642502, 0.12142957746982574, 0.013542033731937408, 0.18613994121551514, -0.14682845771312714, -0.011166473850607872], [0.01802973635494709, -0.17013779282569885, 0.08821124583482742, 0.1212114617228508, -0.19056718051433563, 0.036840878427028656, -0.1284550577402115, 0.12594765424728394, 0.02152085490524769, 0.023180805146694183, 0.07532192021608353, 0.002250358462333679, 0.10914670675992966, -0.037745825946331024, 0.006638750433921814, 0.0041900258511304855, 0.09172391146421432, 0.02820754237473011, 0.0807899534702301, -0.16187232732772827, 0.07433772087097168, 0.04321274533867836, -0.02406148798763752, -0.03574774041771889, 0.19354860484600067, 0.07639157027006149, -0.10839137434959412, 0.015906084328889847, 0.021735956892371178, 0.11438941210508347, 0.040255848318338394, 0.005174804478883743, 0.015645459294319153, 0.09811405837535858, -0.011135226115584373, -0.045877255499362946, -0.01377963088452816, -0.07465631514787674, -0.09327887743711472, 0.08828305453062057, 0.05883054435253143, -0.027590252459049225, -0.07472588866949081, 0.14055229723453522, -0.0627269372344017, 0.05893290042877197, -0.09305472671985626], [-0.013167032040655613, -0.008463685400784016, -0.013638169504702091, 0.14567391574382782, -0.12519097328186035, -0.11240797489881516, 0.018383366987109184, 0.0005892191547900438, -0.0712444856762886, 0.02444254606962204, 0.02943491004407406, -0.06434984505176544, 0.01326367724686861, -0.06119516119360924, -0.04250083491206169, -0.12530513107776642, 0.018425891175866127, 0.030061516910791397, -0.037027254700660706, 0.1035948395729065, 0.038245417177677155, -0.010672800242900848, -0.10080906003713608, -0.17186027765274048, 0.06449610739946365, 0.2527843415737152, 0.06948982179164886, 0.00460236007347703, -0.10089080035686493, 0.0054840766824781895, 0.029886741191148758, 0.12710639834403992, -0.1636086255311966, -0.0998026430606842, 0.10493039339780807, -0.0014966955641284585, -0.006610590033233166, 0.19613204896450043, -0.13693687319755554, 0.0956011414527893, 0.23296388983726501, 0.17516250908374786, -0.09119162708520889, -0.15963199734687805, 0.04624732956290245, 0.15865586698055267, 0.039419278502464294], [0.09174034744501114, -0.11826912313699722, -0.08163207024335861, 0.06462478637695312, 0.06968317925930023, -0.14589917659759521, 0.09240863472223282, 0.03427423909306526, 0.08804026246070862, 0.14170275628566742, -0.05994541570544243, -0.07581482082605362, 0.058036066591739655, 0.013320657424628735, 0.0595233328640461, -0.08140835165977478, -0.1086064949631691, 0.18539533019065857, 0.04497462511062622, 0.036378175020217896, 0.06548388302326202, 0.0005499511607922614, 0.012366971001029015, -0.06449666619300842, -0.0011884535197168589, -0.06989841163158417, 0.15584294497966766, 0.0773051455616951, 0.19995225965976715, -0.02111269161105156, -0.05903496965765953, 0.02544918656349182, -0.182167187333107, -0.022343771532177925, 0.09698279947042465, 0.037728358060121536, 0.04571784660220146, 0.09069380909204483, 0.006686817854642868, 0.09692244976758957, 0.0581766776740551, -0.1730688065290451, -0.08367328345775604, 0.03858911246061325, -0.11210352927446365, 0.13352733850479126, -0.04630681872367859], [0.12131216377019882, 0.04250943660736084, -0.011772175319492817, 0.10178185999393463, -0.08916759490966797, -0.036516446620225906, 0.15579277276992798, -0.1191583126783371, 0.046253450214862823, 0.039030808955430984, -0.017183566465973854, 0.03608083724975586, 0.08058982342481613, -0.001926225028000772, 0.11492782831192017, -0.012465079315006733, 0.1857445240020752, 0.07781679928302765, -0.15784841775894165, 0.12088850140571594, -0.0892416313290596, 0.09628301113843918, 0.049906324595212936, -0.0049813794903457165, 0.07488048076629639, -0.12480330467224121, -0.00041747806244529784, 0.10294957458972931, -0.019779851660132408, 0.08207282423973083, -0.05337151139974594, -0.15484100580215454, 0.04367978870868683, 0.031769659370183945, 0.1449427306652069, 0.08671888709068298, -0.032791320234537125, -0.021699754521250725, -0.0498797670006752, -0.10088241845369339, 0.024592578411102295, 0.03749880567193031, -0.12064026296138763, 0.16542162001132965, -0.08105240017175674, 0.01120250765234232, -0.0964534655213356], [-0.10689586400985718, 0.013311494141817093, -0.04032013192772865, 0.09607123583555222, -0.010209761559963226, -0.04500330239534378, 0.032910969108343124, -0.19238895177841187, -0.001142611145041883, -0.014819466508924961, -0.0010672904318198562, 0.005675411317497492, 0.13868829607963562, -0.1038622334599495, 0.027518095448613167, 0.011347281746566296, -0.01025446504354477, 0.1505081206560135, 0.055991802364587784, 0.09029088169336319, 0.07960200309753418, -0.009162641130387783, -0.010167445987462997, -0.15030689537525177, 0.02587844245135784, 0.11541953682899475, 0.25970858335494995, -0.04138746112585068, 0.02757161669433117, -0.07147367298603058, -0.03484470397233963, 0.06030062213540077, -0.008012372069060802, 0.11678052693605423, 0.06033869832754135, -0.16469205915927887, 0.009493534453213215, -0.06419800221920013, -0.027439381927251816, -0.23170991241931915, 0.06325163692235947, -0.04754035919904709, 0.14151829481124878, -0.024428285658359528, 0.03663010522723198, -0.014014661312103271, 0.07933864742517471], [0.1961328685283661, -0.19374623894691467, -0.0461200475692749, -0.039586760103702545, 0.015659701079130173, -0.06960911303758621, -0.01638072170317173, -0.21320883929729462, 0.09417915344238281, -0.0005099914851598442, -0.02279582805931568, 0.06605979055166245, 0.02476269192993641, -0.06774353981018066, -0.05979916825890541, 0.07876823842525482, 0.10162700712680817, 0.08459306508302689, -0.03635697066783905, -0.04573815315961838, 0.016852959990501404, -0.02267352305352688, 0.014104140922427177, 0.21716342866420746, -0.019625626504421234, 0.050252851098775864, -0.025623394176363945, -0.16694414615631104, -0.03648490458726883, -0.0292288176715374, 0.11654428392648697, -0.11254563182592392, 0.10674167424440384, -0.012082332745194435, 0.016062026843428612, 0.16918064653873444, -0.03125816583633423, -0.0732916072010994, -0.1552414745092392, 0.08086806535720825, -0.015543929301202297, 0.07168169319629669, -0.04406705126166344, 0.002411771332845092, 0.027984902262687683, -0.111629419028759, -0.03885743394494057], [0.03803003206849098, 0.12520603835582733, -0.025953348726034164, -0.12457648664712906, 0.12242846935987473, 0.17139123380184174, 0.02405727095901966, 0.04476451501250267, -0.07471441477537155, -0.05728845298290253, 0.06697387993335724, 0.04363100975751877, 0.0663800910115242, 0.05301876366138458, 0.05558641627430916, 0.023316334933042526, 0.1431836634874344, -0.031246243044734, -0.0793466567993164, 0.0040940348990261555, -0.07702872157096863, 0.08034487813711166, -0.0891607329249382, 0.03492174670100212, -0.06484342366456985, 0.0715700089931488, 0.16138651967048645, 0.16885486245155334, -0.05302713066339493, -0.12045163661241531, -0.12560966610908508, 0.04986100271344185, 0.0773935317993164, -0.007310232613235712, 0.08704610913991928, -0.06222168356180191, 0.041403114795684814, 0.02961314283311367, -0.018595995381474495, 0.20119675993919373, 0.05321577563881874, -0.06285413354635239, 0.15785232186317444, 0.0437021404504776, -0.017546065151691437, -0.004860317800194025, -0.06974192708730698], [-0.18234588205814362, -0.021512318402528763, -0.06464579701423645, -0.1385437250137329, 0.06935858726501465, 0.06279046833515167, -0.047116585075855255, -0.007390775252133608, -0.033427782356739044, 0.05448394641280174, -0.01353550050407648, 0.09277325868606567, 0.11416171491146088, 0.1727251410484314, -0.07555142045021057, 0.12179039418697357, -0.15612737834453583, -0.01307754311710596, 0.10485290735960007, 0.0931956022977829, -0.14063628017902374, -0.033401310443878174, -0.12003238499164581, 0.08658374100923538, 0.07036540657281876, 0.08049122244119644, -0.11303825676441193, -0.08193698525428772, 0.03260113671422005, 0.06563956290483475, 0.004132904578000307, -0.0746544823050499, -0.21268029510974884, 0.10685504227876663, 0.04154043644666672, -0.021238096058368683, 0.10752878338098526, -0.0018214946612715721, -0.11080323159694672, 0.0706915482878685, 0.03174084052443504, 0.07645813375711441, 0.021525604650378227, 0.08088555932044983, -0.053874146193265915, -0.09296049922704697, -0.06259575486183167], [0.051004115492105484, 0.019000550732016563, 0.016061754897236824, -0.10375628620386124, -0.10756416618824005, 0.060754235833883286, -0.031400468200445175, 0.09764999896287918, 0.1637120395898819, 0.041843950748443604, -0.18775638937950134, 0.1318526268005371, 0.11484815925359726, -0.11634726822376251, 0.05559119954705238, -0.056324731558561325, -0.0889216735959053, -0.046083856374025345, 0.01414245180785656, -0.0018238603370264173, 0.01198072824627161, -0.1264497935771942, 0.05284149944782257, -0.093650221824646, 0.030809739604592323, 0.08285277336835861, 0.11250191926956177, 0.07336252927780151, 0.045503467321395874, -0.013473067432641983, -0.1392500251531601, 0.05981937423348427, -0.07946036756038666, -0.10838568210601807, 0.10011705756187439, 0.1341627538204193, -0.032330919057130814, 0.05307405814528465, -0.041665174067020416, -0.0007829368114471436, -0.07868979126214981, 0.02757176384329796, 0.022505752742290497, 0.1879110187292099, 0.21254275739192963, 0.019482523202896118, 0.15018588304519653], [-0.07559283822774887, 0.08745899051427841, 0.14496324956417084, -0.027950655668973923, -0.296597421169281, -0.018388278782367706, 0.026869194582104683, 0.15716160833835602, 0.11394929140806198, 0.11389745026826859, 0.05183839425444603, -0.051507990807294846, 0.06824669986963272, -0.008245632983744144, 0.09465007483959198, 0.02738245390355587, 0.017384961247444153, -0.04968076944351196, 0.07053130120038986, -0.04821356385946274, -0.004804268945008516, -0.016399679705500603, -0.090895876288414, -0.08236180990934372, -0.0031000319868326187, -0.07904540747404099, 0.15611585974693298, -0.06383336335420609, -0.024713341146707535, -0.05413690209388733, -0.025889264419674873, 0.011330808512866497, -0.0761394053697586, 0.05318009480834007, 0.01854228787124157, 0.19782082736492157, -0.04927476868033409, 0.002349346410483122, -0.08723355829715729, 0.08467169851064682, -0.07822494208812714, 0.12810702621936798, 0.04108816757798195, -0.017640605568885803, -0.09052412211894989, -0.06320003420114517, -0.07334990799427032], [0.08985815197229385, -0.010981342755258083, -0.01527784951031208, 0.16264835000038147, 0.045912086963653564, 0.038232892751693726, 0.0703209862112999, 0.0888943150639534, 0.013905555941164494, -0.1023729220032692, -0.046649955213069916, -0.023821204900741577, 0.016752207651734352, -0.09014841169118881, -0.0738159716129303, -0.11925892531871796, 0.015092344954609871, 0.003994960803538561, 0.1327388435602188, 0.02518700249493122, -0.055299803614616394, 0.02793583646416664, -0.010768773965537548, 0.013243076391518116, 0.16969650983810425, 0.2059459537267685, 0.149342343211174, 0.056192800402641296, 0.052792880684137344, 0.027185294777154922, 0.0007169073796831071, -0.07212342321872711, -0.007570130750536919, 0.0706249475479126, -0.13847337663173676, 0.0008111795759759843, -0.11084238439798355, 0.07628262042999268, -0.028369851410388947, 0.12152604013681412, -0.016960566863417625, -0.1421973705291748, -0.18620665371418, -0.014950094744563103, 0.023757046088576317, 0.02490454539656639, -0.08436103165149689], [-0.06757660210132599, -0.08403338491916656, -0.12149281799793243, 0.10215171426534653, -0.16254684329032898, -0.0006749586900696158, 0.06165328621864319, -0.04474596306681633, 0.13729621469974518, 0.15771102905273438, -0.10407000035047531, 0.18455210328102112, -0.09442253410816193, 0.016325045377016068, -0.1656613051891327, -0.00823786947876215, -0.08041474223136902, 0.023497015237808228, 0.015803880989551544, -0.06564479321241379, -0.016502315178513527, 0.035237859934568405, 0.012613052502274513, 0.047004491090774536, -0.0540500283241272, -0.05904405936598778, 0.0723784863948822, 0.07608776539564133, -0.0048168860375881195, 0.02627606689929962, 0.12197721749544144, 0.06807193160057068, -0.057283222675323486, -0.0037418417632579803, -0.00014604665921069682, -0.06398715078830719, 0.08948273211717606, 0.058175209909677505, 0.0169562678784132, 0.07387550920248032, 0.04475448653101921, -0.12218774855136871, -0.016705863177776337, 0.05950714275240898, 0.03732321411371231, -0.10827662795782089, -0.1281147003173828], [-0.08120673149824142, -0.021848635748028755, -0.1087062731385231, -0.07513133436441422, -0.05267035588622093, 0.12036602199077606, 0.142965167760849, -0.09854583442211151, 0.09939022362232208, 0.172164648771286, 0.09933515638113022, -0.002862178022041917, -0.08429710566997528, -0.0159946046769619, -0.02395637519657612, -0.03499035909771919, 0.17989589273929596, 0.123567134141922, 0.007645890582352877, 0.04777778685092926, -0.07658369094133377, -0.03795960173010826, -0.04337418079376221, 0.04637066647410393, 0.06195903941988945, 0.07700614631175995, 0.009808155708014965, 0.0014758650213479996, -0.04316707327961922, -0.11628664284944534, 0.01321334671229124, 0.1719079613685608, -0.005423476919531822, 0.09785614162683487, 0.12159314751625061, 0.05965953692793846, -0.13679473102092743, 0.07000566273927689, -0.20979438722133636, -0.15332402288913727, 0.05236034095287323, 0.07158365100622177, -0.08758025616407394, -0.05842171236872673, 0.023299768567085266, 0.06680524349212646, 0.1841931939125061], [-0.016209300607442856, -0.07802683860063553, 0.0800604447722435, -0.04097617417573929, -0.019199077039957047, 0.030713314190506935, 0.06916153430938721, 0.09343184530735016, 0.01756301149725914, 0.1180926188826561, -0.07135266810655594, -0.021691950038075447, -0.04589448869228363, -0.06224436312913895, -0.012506530620157719, 0.08160357177257538, 0.005222867708653212, 0.1468723863363266, -0.08055805414915085, 0.0006814158405177295, -0.10831788182258606, 0.06715911626815796, 0.0653601810336113, -0.0773061066865921, -0.05325251445174217, -0.027456823736429214, -0.0032102244440466166, -0.0783274918794632, 0.04261241853237152, 0.0017986531602218747, -0.07915652543306351, -0.15085746347904205, 0.015743490308523178, -0.025789160281419754, 0.12530148029327393, -0.16306175291538239, -0.05867316573858261, -0.039829302579164505, -0.1273173689842224, 0.12944336235523224, 0.0744926780462265, -0.02677777409553528, 0.08439195156097412, 0.15016795694828033, -0.12013047188520432, -0.01123495027422905, -0.06905347853899002], [-0.07240185886621475, -0.10038653016090393, -0.16320070624351501, 0.10254504531621933, -0.11957547068595886, -0.02686006762087345, 0.10217315703630447, -0.0235031396150589, -0.11489345878362656, -0.12149964272975922, -0.12867148220539093, 0.01919589564204216, -0.025502188131213188, -0.06848366558551788, 0.03321516513824463, 0.058275967836380005, 0.05911419540643692, 0.03203723207116127, 0.031185101717710495, 0.029297949746251106, 0.08622856438159943, -0.03776369243860245, -0.1730719804763794, -0.09448765963315964, 0.06253155320882797, 0.09314929693937302, -0.11065620183944702, -0.08290358632802963, -0.16780616343021393, 0.13457295298576355, -0.05889679864048958, -0.10099886357784271, -0.08339481055736542, -0.12338413298130035, 0.01762647181749344, -0.014502190984785557, -0.08014792948961258, -0.16532868146896362, 0.08250410109758377, -0.02993916906416416, -0.0997050330042839, -0.10700478404760361, -0.01820855215191841, 0.037177763879299164, -0.029516292735934258, 0.11031685024499893, 0.014523678459227085], [-0.014515147544443607, 0.034383196383714676, 0.11183574050664902, -0.07386115193367004, -0.12010893225669861, -0.0948370024561882, 0.1298287957906723, -0.0024395522195845842, 0.11599297821521759, 0.006920048967003822, 0.033294253051280975, -0.006156604271382093, 0.08704850822687149, -0.09068036079406738, -0.03630500286817551, 0.058740776032209396, 0.14120760560035706, -0.22692431509494781, 0.03571999818086624, 0.04746922105550766, 0.07098819315433502, 0.13049140572547913, 0.05028719827532768, -0.06932680308818817, 0.014162479899823666, 0.07895328104496002, 0.0004264950111974031, -0.0417591817677021, -0.04888448119163513, -0.042076341807842255, -0.05237682908773422, 0.061242494732141495, 0.03634445741772652, -0.15837569534778595, -0.04211552441120148, -0.1500542312860489, -0.09998714923858643, -0.09499680250883102, 0.019779430702328682, 0.11237179487943649, 0.011205529794096947, -0.17910967767238617, -0.21496708691120148, 0.023867584764957428, 0.020933303982019424, -0.06926054507493973, 0.055833134800195694], [0.055158570408821106, 0.031625162810087204, 0.20047371089458466, -0.08203625679016113, -0.10348648577928543, 0.05585253983736038, -0.024780776351690292, 0.0017918491503223777, 0.09481517225503922, 0.005561175290495157, 0.18571358919143677, 0.07552482187747955, 0.12473618984222412, 0.15449251234531403, 0.04371018707752228, -0.03794623166322708, 0.05354836583137512, 0.06021223962306976, 0.1622323989868164, -0.06036750227212906, -0.21928532421588898, 0.007690947037190199, -0.18714961409568787, 0.08273250609636307, 0.015386677347123623, -0.11936876177787781, 0.05609464645385742, -0.07421625405550003, 0.11155541241168976, 0.07459666579961777, 0.03046373836696148, 0.11750122904777527, 0.033505864441394806, -0.02044110931456089, 0.04910789430141449, -0.042895615100860596, 0.09827910363674164, -0.09100942313671112, 0.05790730565786362, 0.04838969558477402, -0.16163070499897003, 0.03909584507346153, -0.22533804178237915, 0.027237419039011, -0.03618219122290611, 0.0843103677034378, 0.191364124417305], [0.13463157415390015, -0.002500948030501604, -0.0214419886469841, 0.023762477561831474, 0.010878409259021282, -0.006018983665853739, -0.022124530747532845, -0.15854686498641968, -0.01767030917108059, 0.06440475583076477, 0.054073743522167206, -0.09911952167749405, -0.13154660165309906, -0.15021319687366486, -0.07732401043176651, 0.07511503994464874, 0.13161306083202362, -0.0050063361413776875, 0.05983840674161911, -0.061885129660367966, -0.11357857286930084, -0.05610145255923271, -0.12965990602970123, 0.09588433802127838, 0.027681447565555573, -0.00016890506958588958, -0.10238344967365265, 0.0053179338574409485, -0.1343572437763214, -0.13526460528373718, -0.022634997963905334, -0.006108383182436228, -0.13519199192523956, -0.11988692730665207, -0.01381051354110241, 0.06398630887269974, 0.13108010590076447, -0.06711935997009277, -0.04060189053416252, 0.12601330876350403, -0.06334948539733887, -0.02890678681433201, 0.02398136630654335, -0.18684357404708862, 0.0064261434599757195, 0.0045876577496528625, 0.05702453851699829], [-0.20023837685585022, 0.08856669813394547, 0.07464975118637085, -0.038118019700050354, -0.05871258303523064, -0.09505768865346909, -0.17503832280635834, 0.012867488898336887, 0.1835806518793106, 0.04495178908109665, -0.0718325823545456, 0.18158532679080963, -0.08745010197162628, -0.10820454359054565, -0.09469819068908691, -0.18051777780056, 0.11213947832584381, -0.18210753798484802, -0.025058191269636154, -0.12233971804380417, -0.11943628638982773, -0.1348271369934082, -0.1469402313232422, -0.025993134826421738, 0.01696464978158474, -0.0026930782478302717, 0.05833620950579643, 0.03974270075559616, -0.1875670701265335, 0.13106878101825714, 0.0307411327958107, -0.055764298886060715, -0.04889306053519249, -0.04937642812728882, -0.04570471867918968, -0.05411594733595848, -0.023898348212242126, 0.07843238115310669, -0.06670987606048584, 0.11915525794029236, 0.015618432313203812, 0.014962803572416306, -0.05340222641825676, -0.09067635238170624, -0.06963728368282318, -0.05694815143942833, -0.03614313155412674], [-0.05879700928926468, -0.04984022304415703, -0.18357132375240326, -0.04469820857048035, 0.07486352324485779, 0.008135545067489147, -0.04486789181828499, -0.08984735608100891, 0.03345910832285881, 0.057535212486982346, -0.07443799823522568, 0.042679864913225174, -0.05776331201195717, -0.11776547878980637, 0.1123332530260086, -0.033265285193920135, 0.028187138959765434, -0.14859119057655334, -0.03518039360642433, -0.14483535289764404, -0.015751630067825317, -0.152616485953331, -0.15517278015613556, -0.16779352724552155, -0.1481604427099228, -0.14128896594047546, -0.20324504375457764, 0.03243892639875412, 0.054497890174388885, 0.15231573581695557, 0.010776912793517113, -0.17681169509887695, 0.039979416877031326, 0.08264294266700745, 0.10906984657049179, -0.04478013142943382, -0.030382582917809486, 0.01747197099030018, -0.10332423448562622, -0.09279265254735947, -0.059240780770778656, 0.09249962866306305, -0.02705206722021103, 0.1500798910856247, 0.04532121866941452, 0.1532202810049057, 0.0009977703448385], [0.09066756069660187, -0.05213110148906708, 0.06802592426538467, -0.041076503694057465, 0.007934975437819958, -0.06498436629772186, -0.01458168774843216, -0.046216364949941635, 0.03469099476933479, 0.048945460468530655, 0.03476324677467346, 0.07460502535104752, -0.01888972334563732, -0.06294158101081848, 0.06875316053628922, 0.14828573167324066, -0.041101209819316864, -0.05985480919480324, -0.008113727904856205, -0.10267074406147003, -0.025061098858714104, 0.14040426909923553, -0.06397702544927597, -0.21421921253204346, 0.10103240609169006, -0.0641697347164154, 0.09688793867826462, -0.05728450044989586, 0.030718421563506126, -0.04122166708111763, 0.0585707351565361, -0.06605943292379379, -0.05610939487814903, 0.1341371238231659, -0.04788479581475258, 0.14788095653057098, 0.11053437739610672, -0.18427301943302155, -0.1461126059293747, -0.12058389186859131, 0.03817667067050934, -0.08211833983659744, 0.05320582911372185, -0.0017877299105748534, -0.10003726929426193, 0.18779900670051575, -0.20079804956912994], [-0.07775725424289703, 0.004531275946646929, -0.06191030889749527, 0.09350673109292984, -0.0419013574719429, -0.02213168330490589, 0.05147036537528038, -0.025819962844252586, -0.023764662444591522, -0.10739357769489288, 0.033912912011146545, 0.005437121726572514, -0.010519656352698803, -0.04585646465420723, 0.016759531572461128, -0.10593373328447342, -0.01787780039012432, -0.12464478611946106, -0.02371775358915329, -0.05876673758029938, 0.020870553329586983, 0.05414202809333801, -0.15121787786483765, 0.15065528452396393, -0.035548046231269836, -0.12704499065876007, 0.1376391351222992, 0.10712861269712448, 0.05259161815047264, 0.1400042325258255, -0.019103938713669777, 0.10089182108640671, -0.059311140328645706, -0.014245061203837395, -0.05430468171834946, 0.05353543907403946, -0.05482019484043121, -0.03434503823518753, 0.05501212179660797, -0.12695394456386566, 0.01578100211918354, -0.026500709354877472, -0.07822377234697342, -0.003256619907915592, -0.17075534164905548, 0.004506329074501991, -0.04850802570581436], [0.12572938203811646, -0.17546848952770233, -0.0613679401576519, 0.11078815907239914, 0.007316151633858681, 0.17801691591739655, -0.030005300417542458, 0.06628324091434479, 0.1094534695148468, 0.06474228948354721, -0.06692671030759811, -0.11473055183887482, -0.07938060909509659, 0.0079586086794734, -0.054397016763687134, -0.07749546319246292, -0.09632660448551178, -0.17288091778755188, 0.015403718687593937, -0.00986306369304657, 0.008778438903391361, -0.011770544573664665, -0.005570724606513977, -0.04690702632069588, -0.04020453244447708, 0.09418568015098572, -0.06633833050727844, 0.084968201816082, 0.024820223450660706, -0.036109067499637604, -0.06601832807064056, -0.00031685506110079587, -0.13306236267089844, -0.02138800546526909, -0.009405058808624744, -0.06163308769464493, 0.055138010531663895, 0.003192880190908909, -0.05859772115945816, 0.07715039700269699, -0.0873187780380249, 0.09513355046510696, -0.0677255168557167, 0.07696685194969177, -0.10078663378953934, -0.019227204844355583, 0.140250101685524], [0.09734784066677094, 0.03468784689903259, -0.009438862092792988, 0.053241316229104996, 0.11172698438167572, 0.00868607871234417, 0.027231454849243164, -0.0635923445224762, 0.04240446910262108, -0.19007764756679535, -0.06322801858186722, -0.13218003511428833, 0.03974803164601326, -0.09536302089691162, 0.01744704134762287, 0.06955582648515701, -0.03823600709438324, 0.09745678305625916, 0.020857438445091248, 0.12266979366540909, -0.03741804510354996, 0.04018164426088333, -0.034998051822185516, 0.009454067796468735, 0.09126681089401245, -0.14612112939357758, 0.09090851992368698, -0.008173732087016106, 0.051149047911167145, 0.1764414757490158, -0.17835642397403717, 0.0413137711584568, 0.10185771435499191, 0.04936736449599266, 0.17723436653614044, 0.11905929446220398, 0.17517730593681335, -0.02796771004796028, 0.12925240397453308, -0.03532477468252182, 0.02857237681746483, 0.07758278399705887, 0.13118648529052734, 0.04421795532107353, -0.010105744935572147, -0.011518952436745167, 0.20244000852108002], [-0.0006358792306855321, 0.09809563308954239, 0.0998929888010025, 0.0946846678853035, 0.0063653308898210526, 0.0828641876578331, 0.13109028339385986, -0.11947156488895416, 0.08377084136009216, -0.04087464511394501, 0.0199262835085392, 0.05459162965416908, 0.053660180419683456, -0.050703346729278564, 0.004733863286674023, 0.09811698645353317, -0.06777118146419525, 0.05562252923846245, 0.028935179114341736, 0.0797414779663086, -0.09455183893442154, 0.10643664747476578, 0.08033062517642975, -0.01894974894821644, 0.0649372860789299, -0.026901062577962875, 0.0067332154139876366, -0.14001265168190002, -0.15206210315227509, -0.012023295275866985, 0.09111011028289795, -0.05245143920183182, -0.08770085126161575, 0.08528631925582886, 0.01785309985280037, 0.07869628071784973, -0.05700623616576195, 0.0946209728717804, 0.13112962245941162, 0.1337670087814331, 0.10142232477664948, 0.12565314769744873, 0.06003902107477188, 0.058372482657432556, -0.17174838483333588, -0.09697728604078293, -0.02983616292476654], [0.022767387330532074, -0.016672303900122643, -0.016867728903889656, 0.12971363961696625, -0.0003616122994571924, -0.14843864738941193, -0.08239463716745377, 0.20335358381271362, -0.042147863656282425, -0.05549146980047226, -0.06639306992292404, -0.06967280805110931, 0.0910905972123146, -0.010081406682729721, -0.0673033818602562, 0.020822184160351753, -0.11298172920942307, -0.13671249151229858, 0.15631434321403503, 0.0670936107635498, -0.1034894585609436, 0.11674900352954865, 0.039526086300611496, 0.04133991897106171, -0.0505005419254303, -0.11682449281215668, 0.08719887584447861, 0.012087507173418999, 0.010596511885523796, 0.05581733211874962, 0.06464473158121109, -0.08105035871267319, -0.0867643654346466, -0.035258498042821884, -0.02148115262389183, 0.02638089470565319, 0.006311846897006035, 0.026647787541151047, -0.2084994614124298, -0.19731532037258148, -0.15489985048770905, -0.09188804030418396, 0.06566929072141647, 0.07776414602994919, 0.009559297934174538, -0.17154039442539215, 0.17236720025539398], [-0.02355736866593361, 0.08489097654819489, -0.15195585787296295, -0.023634975776076317, 0.013780957087874413, -0.11430248618125916, 0.12442237138748169, -0.10785140097141266, 0.08755391091108322, 0.019938088953495026, -0.03345874696969986, -0.0023547254968434572, -0.23526741564273834, 0.10110458731651306, -0.026330528780817986, 0.015764931216835976, -0.023454764857888222, 0.04810101166367531, -0.05622531846165657, 0.18337300419807434, -0.08467952907085419, 0.07510102540254593, -0.08832616358995438, 0.0781514048576355, -0.015272651799023151, -0.012338357977569103, -0.018181126564741135, 0.1344892382621765, -0.1602185070514679, 0.020425762981176376, -0.004206106066703796, -0.036416053771972656, 0.08506160974502563, -0.0035535136703401804, -0.04328986257314682, -0.03497910127043724, -0.21416416764259338, 0.02371450699865818, -0.0810241848230362, -0.05456564575433731, -0.09643522650003433, 0.0524618923664093, -0.08196350932121277, 0.10260400921106339, -0.006032321602106094, 0.010771272704005241, -0.035489290952682495], [-0.008909167721867561, -0.018703104928135872, -0.06036967784166336, -0.18316687643527985, 0.08988969027996063, 0.0630531758069992, 0.03289158269762993, -0.016263874247670174, 0.04447249323129654, -0.02883325144648552, 0.04985956847667694, -0.05600104480981827, 0.07229418307542801, -0.16288597881793976, -0.04583808779716492, -0.037589531391859055, 0.10195645689964294, -0.018319930881261826, 0.09509928524494171, -0.028449824079871178, 0.06237120181322098, -0.050963543355464935, 0.1376752108335495, -0.05092767998576164, -0.003220986109226942, 0.0454898476600647, -0.13844668865203857, -0.07251513749361038, -0.05447009950876236, -0.1391323208808899, -0.08701092004776001, -0.12569569051265717, 0.01207411102950573, -0.0018627735553309321, 0.05084729194641113, 0.053630683571100235, 0.014495802111923695, 0.15607628226280212, 0.014416179619729519, -0.0021963585168123245, 0.11263483762741089, -0.03320816531777382, 0.12730443477630615, 0.029775459319353104, -0.08293692767620087, -0.004538190551102161, -0.12883585691452026], [-0.022582903504371643, 0.013680962845683098, 0.11871327459812164, -0.08336329460144043, -0.045160431414842606, 0.12879519164562225, 0.04965829849243164, 0.0753214880824089, -0.09189332276582718, 0.011650183238089085, -0.05963984131813049, -0.06578017771244049, -0.02413547784090042, -0.0396009162068367, -0.20359332859516144, -0.03491905704140663, 0.007989801466464996, 0.1214039996266365, -0.12908053398132324, -0.06568128615617752, -0.11685317754745483, -0.08018814772367477, -0.08907797187566757, -0.12561555206775665, -0.005138434935361147, 0.012632119469344616, -0.11158937960863113, 0.07721376419067383, -0.06311962008476257, -0.05947071313858032, 0.012655241414904594, 0.04529115557670593, -0.025616252794861794, 0.06006428599357605, 0.028223276138305664, 0.15611669421195984, 0.07421053946018219, -0.006445074453949928, -0.07990875095129013, -0.07595562934875488, -0.0017900014063343406, -0.1230749860405922, 0.16217970848083496, 0.17873786389827728, -0.06801152974367142, 0.06488532572984695, -0.06839144974946976], [0.02971196547150612, -0.08491622656583786, 0.04973273351788521, -0.014462166465818882, 0.012933339923620224, 0.09462696313858032, 0.010560913011431694, -0.016134748235344887, -0.03653901815414429, -0.05936392769217491, -0.10308374464511871, -0.01800687052309513, 0.011719660833477974, -0.012490693479776382, -0.05886530503630638, -0.15599292516708374, -0.03871753811836243, -0.08795664459466934, -0.19311115145683289, -0.13669811189174652, 0.028329268097877502, 0.09232423454523087, 0.07100416719913483, 0.04556766524910927, 0.09250358492136002, 0.2212206870317459, -0.07511987537145615, -0.11928292363882065, 0.01844247616827488, 0.13690200448036194, 0.0312984399497509, 0.050204142928123474, -0.07355046272277832, -0.2798983156681061, -0.0004340705636423081, -0.009572806768119335, -0.01804395020008087, 0.002623253269121051, -0.03758764639496803, -0.1773643046617508, 0.10927760601043701, 0.08986932784318924, 0.02082258090376854, -0.06462004780769348, -0.0360412634909153, 0.018177030608057976, -0.09664291143417358], [0.13275079429149628, -0.059211958199739456, -0.08797618746757507, 0.041100822389125824, 0.017908386886119843, 0.11278370022773743, -0.016306821256875992, -0.04622349888086319, 0.10944820940494537, 0.06079244613647461, 0.06695662438869476, -0.08277109265327454, -0.07819939404726028, 0.06160272657871246, -0.11020262539386749, 0.03839234262704849, 0.0025462303310632706, -0.0031267176382243633, 0.005359367001801729, -0.08374287188053131, 0.054101672023534775, -0.019031407311558723, -0.04608890414237976, 0.008355716243386269, -0.18191593885421753, 0.12276724725961685, 0.10841017961502075, 0.044941872358322144, -0.05591307207942009, -0.002470370614901185, -0.04284015670418739, 0.08211172372102737, 0.036458611488342285, 0.13688024878501892, 0.14844943583011627, 0.03763537481427193, -0.0686146467924118, -0.06130678206682205, 0.10999852418899536, -0.04736991599202156, -0.11595991253852844, 0.02805395796895027, -0.025766761973500252, 0.17945927381515503, 0.06022566556930542, 0.029487695544958115, 0.03615260124206543], [-0.053208645433187485, 0.02360263653099537, 0.017826871946454048, 0.047296926379203796, 0.11329343914985657, -0.04498153179883957, 0.07129376381635666, 0.017796127125620842, 0.07477808743715286, -0.028195928782224655, -0.05994373559951782, -0.01645040325820446, -0.12469353526830673, -0.03601113334298134, -0.14470292627811432, -0.015325923450291157, 0.05114829167723656, 0.09337635338306427, -0.08702845126390457, 0.07098924368619919, 0.02072407305240631, 0.04438263177871704, -0.07476717233657837, -0.023857802152633667, -0.03633889928460121, -0.01676926016807556, 0.006446367595344782, 0.1835900843143463, 0.11410314589738846, -0.018024025484919548, -0.10206908732652664, 0.002279699081555009, -0.0017934145871549845, 0.12517422437667847, 0.1398780792951584, -0.049751367419958115, -0.10361221432685852, 0.0314859114587307, -0.0631406381726265, 0.10804008692502975, -0.12161773443222046, 0.02069803513586521, 0.10637237131595612, -0.006344774272292852, -0.17623108625411987, 0.07443834096193314, -0.0692317932844162], [0.014772126451134682, -0.09978742897510529, 0.11122038215398788, 0.006322124972939491, -0.08292975276708603, -0.11280816793441772, -0.09704747796058655, 0.05237701162695885, 0.07527421414852142, 0.010655388236045837, 0.061062704771757126, -0.14196239411830902, -0.013820366933941841, -0.18893122673034668, -0.04795938730239868, 0.05040489882230759, -0.07418248057365417, 0.06703798472881317, 0.023480383679270744, 0.14465104043483734, 0.021924173459410667, -0.005399781279265881, -0.001589456805959344, -0.020890649408102036, 0.035473812371492386, -0.11791510879993439, 0.185782328248024, 0.08015523850917816, 0.07337648421525955, 0.04632812365889549, 0.003631090046837926, 0.17778107523918152, -0.01344492007046938, -0.05230312421917915, 0.06167086958885193, -0.02965332195162773, 0.058577753603458405, 0.1513279676437378, 0.01783967763185501, -0.03515781834721565, -0.07417434453964233, 0.04770867899060249, 0.00424776878207922, 0.0004743523895740509, 0.026856908574700356, -0.19359427690505981, -0.003847468411549926], [-0.03847368806600571, -0.05062660947442055, 0.001726388232782483, 0.04580417275428772, 0.13336974382400513, -0.04505490884184837, -0.052154336124658585, -0.0013975701294839382, 0.031281474977731705, 0.03943302482366562, -0.05973297730088234, 0.02087349072098732, 0.07847421616315842, -0.11386021971702576, -0.07333056628704071, -0.06530258059501648, -0.027735840529203415, -0.007672036997973919, -0.016984757035970688, 0.09338110685348511, -0.012891296297311783, -0.029335778206586838, -0.04931054636836052, 0.06185007095336914, -0.21778284013271332, -0.03530208021402359, 0.1636209785938263, -0.017834138125181198, -0.12337663024663925, 0.06316670030355453, -0.04152891784906387, -0.0003889371291734278, 0.050127267837524414, 0.012784145772457123, 0.11708812415599823, 0.11069425195455551, -0.12019617110490799, -0.019401544705033302, 0.10718486458063126, -0.09005033224821091, 0.11790938675403595, -0.022375935688614845, 0.03247171267867088, -0.08746405690908432, -0.06582551449537277, -0.10902126878499985, 0.05667887628078461], [0.10228022187948227, -0.120785653591156, 0.08164215087890625, 0.23232801258563995, 0.05200936645269394, 0.0702623650431633, -0.04060262814164162, 0.02889985777437687, 0.11748385429382324, 0.04014487937092781, -0.09534089267253876, -0.0992516502737999, 0.03209942206740379, -0.028141353279352188, -0.20712460577487946, -0.24563345313072205, 0.07706031203269958, -0.10995079576969147, 0.026735713705420494, -0.06449434161186218, -0.046493202447891235, 0.006532724481076002, 0.016169536858797073, -0.06479902565479279, -0.023031307384371758, 0.002076326636597514, -0.06891241669654846, 0.15089239180088043, -0.09203481674194336, 0.08959163725376129, -0.09164141863584518, -0.01908109150826931, -0.1196129322052002, 0.1254100352525711, 0.05474042147397995, 0.07960841059684753, 0.13788704574108124, -0.07487450540065765, 0.027921507135033607, 0.023103587329387665, -0.00674630980938673, 0.02358366921544075, -0.03393355756998062, -0.062490757554769516, -0.10687374323606491, -0.04634036496281624, 0.018609669059515], [-0.1557963490486145, 0.010767205618321896, -0.10957208275794983, 0.19904758036136627, 0.10226622968912125, 0.1269388198852539, 0.0736948698759079, 0.031491491943597794, 0.0476071760058403, 0.14038045704364777, 0.008176163770258427, -0.11613710224628448, 0.12070369720458984, 0.06384013593196869, -0.0868750810623169, 0.16328421235084534, 0.10255756229162216, 0.11289308220148087, -0.159371018409729, 0.08333192020654678, -0.0740516409277916, 0.163835808634758, 0.11126361787319183, -0.022515898570418358, 0.1190258339047432, -0.15967293083667755, -0.041845306754112244, -0.07472474128007889, -0.06322459876537323, -0.14384418725967407, 0.004713183268904686, 0.09381445497274399, 0.02401747740805149, -0.15226319432258606, -0.09776676446199417, 0.011474618688225746, 0.008470805361866951, -0.07898497581481934, -0.1208181232213974, -0.22014331817626953, -0.06159151718020439, 0.054113175719976425, -0.11740100383758545, 0.019747693091630936, 0.023287663236260414, -0.0500786267220974, -0.0896427184343338], [0.029757095500826836, -0.035005904734134674, -0.07996953278779984, 0.14254599809646606, 0.03643272817134857, 0.024343058466911316, 0.11407283693552017, 0.168703094124794, -0.08691053837537766, -0.00896099116653204, -0.034561093896627426, -0.036595579236745834, -0.17214138805866241, 0.021012838929891586, 0.08390503376722336, -0.11461616307497025, -0.03207482397556305, -0.05487288162112236, 0.051394276320934296, -0.03588073328137398, -0.0880170464515686, 0.08281160891056061, -0.08513089269399643, 0.14102879166603088, -0.023031121119856834, 0.009456575848162174, 0.017286093905568123, 0.041320014744997025, 0.017061758786439896, 0.0009195683524012566, 0.10522425919771194, -0.007979401387274265, -0.05560315400362015, 0.05798763036727905, -0.09232449531555176, -0.1504407674074173, 0.018771881237626076, -0.09014489501714706, 0.08311787247657776, -0.08078491687774658, 0.06694622337818146, 